Language model created by QuickLM on Mon Jan 28 23:11:03 EST 2019
Copyright (c) 1996-2010 Carnegie Mellon University and Alexander I. Rudnicky

The model is in standard ARPA format, designed by Doug Paul while he was at MITRE.

The code that was used to produce this language model is available in Open Source.
Please visit http://www.speech.cs.cmu.edu/tools/ for more information

The (fixed) discount mass is 0.5. The backoffs are computed using the ratio method.
This model based on a corpus of 25 sentences and 35 words

\data\
ngram 1=35
ngram 2=59
ngram 3=46

\1-grams:
-0.9284 </s> -0.3010
-0.9284 <s> -0.2300
-1.5482 A -0.2371
-2.0253 AND -0.2419
-2.3263 BEER -0.2465
-2.0253 CHIPS -0.2465
-2.3263 CHOCO -0.2990
-2.3263 COKE -0.2465
-2.3263 COOKIES -0.2465
-2.3263 FISH -0.2465
-2.3263 FLAKES -0.2465
-1.6274 I -0.2907
-2.3263 IS -0.2969
-1.5482 JUSTINA -0.2886
-2.0253 M -0.2419
-2.3263 MUESLI -0.2465
-2.3263 NO -0.2465
-2.3263 NOODLES -0.2465
-2.3263 O -0.2990
-2.0253 ORDER -0.2465
-2.3263 PASTA -0.2465
-2.3263 PICKLES -0.2465
-2.3263 PRINGLES -0.2465
-2.3263 ROBO -0.2990
-2.3263 S -0.2465
-2.3263 START -0.2465
-2.3263 TAKE -0.2969
-2.3263 TEA -0.2465
-2.0253 THE -0.2969
-2.3263 THIS -0.2990
-2.3263 TUNA -0.2990
-2.3263 WAIT -0.2465
-1.6274 WANT -0.2886
-2.3263 WATER -0.2465
-2.3263 YES -0.2465

\2-grams:
-1.6990 <s> A -0.2218
-1.6990 <s> AND -0.1761
-1.3979 <s> CHIPS 0.0000
-1.6990 <s> CHOCO 0.0000
-1.6990 <s> COOKIES 0.0000
-1.0000 <s> I 0.0000
-0.9208 <s> JUSTINA 0.0000
-1.6990 <s> M -0.1761
-1.6990 <s> MUESLI 0.0000
-1.6990 <s> NOODLES 0.0000
-1.6990 <s> PASTA 0.0000
-1.6990 <s> PICKLES 0.0000
-1.6990 <s> PRINGLES 0.0000
-1.6990 <s> ROBO 0.0000
-1.6990 <s> TUNA 0.0000
-0.7782 A </s> -0.3010
-1.0792 A BEER 0.0000
-1.0792 A COKE 0.0000
-1.0792 A TEA 0.0000
-1.0792 A WATER 0.0000
-0.6021 AND </s> -0.3010
-0.6021 AND M -0.1761
-0.3010 BEER </s> -0.3010
-0.3010 CHIPS </s> -0.3010
-0.3010 CHOCO FLAKES 0.0000
-0.3010 COKE </s> -0.3010
-0.3010 COOKIES </s> -0.3010
-0.3010 FISH </s> -0.3010
-0.3010 FLAKES </s> -0.3010
-0.3010 I WANT 0.0000
-0.3010 IS THE 0.0000
-1.0792 JUSTINA NO 0.0000
-1.0792 JUSTINA START 0.0000
-1.0792 JUSTINA TAKE 0.0000
-1.0792 JUSTINA THIS 0.0000
-1.0792 JUSTINA WAIT 0.0000
-1.0792 JUSTINA YES 0.0000
-0.6021 M </s> -0.3010
-0.6021 M AND -0.1761
-0.3010 MUESLI </s> -0.3010
-0.3010 NO </s> -0.3010
-0.3010 NOODLES </s> -0.3010
-0.3010 O S 0.0000
-0.3010 ORDER </s> -0.3010
-0.3010 PASTA </s> -0.3010
-0.3010 PICKLES </s> -0.3010
-0.3010 PRINGLES </s> -0.3010
-0.3010 ROBO O 0.0000
-0.3010 S </s> -0.3010
-0.3010 START </s> -0.3010
-0.3010 TAKE THE 0.0000
-0.3010 TEA </s> -0.3010
-0.3010 THE ORDER 0.0000
-0.3010 THIS IS 0.0000
-0.3010 TUNA FISH 0.0000
-0.3010 WAIT </s> -0.3010
-0.3010 WANT A 0.0000
-0.3010 WATER </s> -0.3010
-0.3010 YES </s> -0.3010

\3-grams:
-0.3010 <s> A </s>
-0.3010 <s> AND </s>
-0.3010 <s> CHIPS </s>
-0.3010 <s> CHOCO FLAKES
-0.3010 <s> COOKIES </s>
-0.3010 <s> I WANT
-1.0792 <s> JUSTINA NO
-1.0792 <s> JUSTINA START
-1.0792 <s> JUSTINA TAKE
-1.0792 <s> JUSTINA THIS
-1.0792 <s> JUSTINA WAIT
-1.0792 <s> JUSTINA YES
-0.3010 <s> M AND
-0.3010 <s> MUESLI </s>
-0.3010 <s> NOODLES </s>
-0.3010 <s> PASTA </s>
-0.3010 <s> PICKLES </s>
-0.3010 <s> PRINGLES </s>
-0.3010 <s> ROBO O
-0.3010 <s> TUNA FISH
-0.3010 A BEER </s>
-0.3010 A COKE </s>
-0.3010 A TEA </s>
-0.3010 A WATER </s>
-0.3010 AND M </s>
-0.3010 CHOCO FLAKES </s>
-0.3010 I WANT A
-0.3010 IS THE ORDER
-0.3010 JUSTINA NO </s>
-0.3010 JUSTINA START </s>
-0.3010 JUSTINA TAKE THE
-0.3010 JUSTINA THIS IS
-0.3010 JUSTINA WAIT </s>
-0.3010 JUSTINA YES </s>
-0.3010 M AND M
-0.3010 O S </s>
-0.3010 ROBO O S
-0.3010 TAKE THE ORDER
-0.3010 THE ORDER </s>
-0.3010 THIS IS THE
-0.3010 TUNA FISH </s>
-1.0000 WANT A </s>
-1.0000 WANT A BEER
-1.0000 WANT A COKE
-1.0000 WANT A TEA
-1.0000 WANT A WATER

\end\
