Language model created by QuickLM on Mon Mar  4 20:34:02 EST 2019
Copyright (c) 1996-2010 Carnegie Mellon University and Alexander I. Rudnicky

The model is in standard ARPA format, designed by Doug Paul while he was at MITRE.

The code that was used to produce this language model is available in Open Source.
Please visit http://www.speech.cs.cmu.edu/tools/ for more information

The (fixed) discount mass is 0.5. The backoffs are computed using the ratio method.
This model based on a corpus of 22 sentences and 29 words

\data\
ngram 1=29
ngram 2=50
ngram 3=31

\1-grams:
-0.8394 </s> -0.3010
-0.8394 <s> -0.2264
-1.8808 A -0.2331
-2.1818 ALEX -0.2331
-2.1818 AM -0.2331
-2.1818 BEER -0.2331
-2.1818 COKE -0.2331
-2.1818 DRINK -0.2924
-2.1818 FAVORITE -0.2982
-2.1818 HAYDEN -0.2331
-2.1818 I -0.2982
-2.1818 I'M -0.2331
-1.7047 IS -0.2264
-2.1818 JAMIE -0.2331
-2.1818 JORDAN -0.2331
-1.8808 JUSTINA -0.2953
-2.1818 MICHAEL -0.2331
-2.1818 MILK -0.2331
-2.1818 MORGAN -0.2331
-1.8808 MY -0.2953
-2.1818 NAME -0.2924
-2.1818 NO -0.2331
-2.1818 PEYTON -0.2331
-2.1818 ROBIN -0.2331
-2.1818 TAYLOR -0.2331
-2.1818 TEA -0.2331
-2.1818 TRACY -0.2331
-2.1818 WATER -0.2331
-2.1818 YES -0.2331

\2-grams:
-1.6435 <s> ALEX 0.0000
-1.6435 <s> BEER 0.0000
-1.6435 <s> COKE 0.0000
-1.6435 <s> HAYDEN 0.0000
-1.6435 <s> I 0.0000
-1.6435 <s> I'M 0.0000
-1.6435 <s> IS -0.1249
-1.6435 <s> JAMIE 0.0000
-1.6435 <s> JORDAN 0.0000
-1.3424 <s> JUSTINA 0.0000
-1.6435 <s> MICHAEL 0.0000
-1.6435 <s> MILK 0.0000
-1.6435 <s> MORGAN 0.0000
-1.3424 <s> MY 0.0000
-1.6435 <s> PEYTON 0.0000
-1.6435 <s> ROBIN 0.0000
-1.6435 <s> TAYLOR 0.0000
-1.6435 <s> TEA 0.0000
-1.6435 <s> TRACY 0.0000
-1.6435 <s> WATER 0.0000
-0.3010 A </s> -0.3010
-0.3010 ALEX </s> -0.3010
-0.3010 AM </s> -0.3010
-0.3010 BEER </s> -0.3010
-0.3010 COKE </s> -0.3010
-0.3010 DRINK IS -0.1249
-0.3010 FAVORITE DRINK 0.0000
-0.3010 HAYDEN </s> -0.3010
-0.3010 I AM 0.0000
-0.3010 I'M </s> -0.3010
-0.7782 IS </s> -0.3010
-0.4771 IS A 0.0000
-0.3010 JAMIE </s> -0.3010
-0.3010 JORDAN </s> -0.3010
-0.6021 JUSTINA NO 0.0000
-0.6021 JUSTINA YES 0.0000
-0.3010 MICHAEL </s> -0.3010
-0.3010 MILK </s> -0.3010
-0.3010 MORGAN </s> -0.3010
-0.6021 MY FAVORITE 0.0000
-0.6021 MY NAME 0.0000
-0.3010 NAME IS -0.2218
-0.3010 NO </s> -0.3010
-0.3010 PEYTON </s> -0.3010
-0.3010 ROBIN </s> -0.3010
-0.3010 TAYLOR </s> -0.3010
-0.3010 TEA </s> -0.3010
-0.3010 TRACY </s> -0.3010
-0.3010 WATER </s> -0.3010
-0.3010 YES </s> -0.3010

\3-grams:
-0.3010 <s> ALEX </s>
-0.3010 <s> BEER </s>
-0.3010 <s> COKE </s>
-0.3010 <s> HAYDEN </s>
-0.3010 <s> I AM
-0.3010 <s> I'M </s>
-0.3010 <s> IS A
-0.3010 <s> JAMIE </s>
-0.3010 <s> JORDAN </s>
-0.6021 <s> JUSTINA NO
-0.6021 <s> JUSTINA YES
-0.3010 <s> MICHAEL </s>
-0.3010 <s> MILK </s>
-0.3010 <s> MORGAN </s>
-0.6021 <s> MY FAVORITE
-0.6021 <s> MY NAME
-0.3010 <s> PEYTON </s>
-0.3010 <s> ROBIN </s>
-0.3010 <s> TAYLOR </s>
-0.3010 <s> TEA </s>
-0.3010 <s> TRACY </s>
-0.3010 <s> WATER </s>
-0.3010 DRINK IS A
-0.3010 FAVORITE DRINK IS
-0.3010 I AM </s>
-0.3010 IS A </s>
-0.3010 JUSTINA NO </s>
-0.3010 JUSTINA YES </s>
-0.3010 MY FAVORITE DRINK
-0.3010 MY NAME IS
-0.3010 NAME IS </s>

\end\
