Language model created by QuickLM on Thu May 30 14:14:15 EDT 2019
Copyright (c) 1996-2010 Carnegie Mellon University and Alexander I. Rudnicky

The model is in standard ARPA format, designed by Doug Paul while he was at MITRE.

The code that was used to produce this language model is available in Open Source.
Please visit http://www.speech.cs.cmu.edu/tools/ for more information

The (fixed) discount mass is 0.5. The backoffs are computed using the ratio method.
This model based on a corpus of 2010 sentences and 273 words

\data\
ngram 1=273
ngram 2=1175
ngram 3=2677

\1-grams:
-1.4021 </s> -0.3010
-1.4021 <s> -0.2599
-2.5782 A -0.2985
-3.7053 ABOUT -0.3009
-4.0063 ABOVE -0.2708
-2.7462 ACCOMPANY -0.2863
-2.7510 ALEX -0.2539
-3.6261 ALEX, -0.2929
-3.0240 ALL -0.2708
-1.7321 AND -0.2806
-2.9649 ANSWER -0.2999
-3.1142 APPLE -0.2548
-2.6599 ARE -0.2681
-3.1371 ARM -0.2897
-4.4042 ARM, -0.2929
-3.7510 ARRANGE -0.3003
-3.1142 ASK -0.2943
-1.8449 AT -0.2708
-2.6049 BACK -0.2821
-4.4042 BAG -0.2905
-4.1032 BAGGAGE -0.2905
-2.7230 BED -0.2491
-3.2739 BED, -0.2876
-2.6049 BEDROOM -0.2600
-4.7053 BEDROOM, -0.2997
-3.8022 BEDROOM. -0.2835
-3.8602 BEHIND -0.2708
-3.5591 BIGGEST -0.2984
-2.5591 BOOKCASE -0.2477
-3.3830 BOOKCASE, -0.2849
-3.0151 BOWL -0.2548
-3.7510 BOWL, -0.2929
-4.2281 BOY -0.2897
-3.9271 BOYS -0.2835
-2.5409 BRING -0.2636
-3.4500 CAB -0.2835
-3.4500 CAN -0.2997
-4.7053 CASCADE -0.3010
-4.0063 CEREAL -0.2858
-2.7185 CHARLIE -0.2539
-3.8022 CHARLIE, -0.2929
-3.8022 CHILDREN -0.2979
-4.0063 CHIPS -0.2877
-4.2281 CHOCOLATE -0.3010
-3.3830 CLEAN -0.3006
-3.3251 CLEANING -0.3008
-2.9893 CLOTH -0.2548
-4.4042 CLOTH, -0.2929
-4.1032 COKE -0.2706
-2.9571 CONTACT -0.2932
-3.4500 CONTAINERS -0.2928
-2.6261 CORRIDOR -0.2614
-4.4042 CORRIDOR, -0.2991
-3.7510 CORRIDOR. -0.2835
-2.7185 COUCH -0.2491
-3.3435 COUCH, -0.2876
-2.1043 COULD -0.2972
-3.0063 COUNTER -0.2736
-4.7053 COUNTER, -0.2997
-4.2281 COUNTRY -0.2725
-4.4042 CRACKERS -0.2725
-3.8602 CUP -0.2822
-2.9344 CUPBOARD -0.2729
-4.4042 CUPBOARD, -0.3004
-3.3628 CUTLERY -0.2637
-3.5292 DAY -0.3002
-4.0063 DEBRIS -0.2835
-2.9418 DELIVER -0.2670
-2.5177 DESK -0.2476
-3.5011 DESK, -0.2863
-2.1894 DINING -0.2942
-4.2281 DISH -0.2844
-2.7608 DISHWASHER -0.2491
-3.4748 DISHWASHER, -0.2876
-4.0063 DISTRIBUTE -0.3003
-3.3435 DOOR -0.2929
-3.8602 DOWN -0.2716
-4.2281 DRINK -0.2806
-3.0240 DRINKS -0.2637
-3.5591 DUMP -0.2708
-3.9271 ELDERS -0.2979
-2.9893 ELIZABETH -0.2539
-4.4042 ELIZABETH, -0.2929
-2.4428 END -0.2970
-2.5814 ENTRANCE -0.2491
-3.2429 ENTRANCE, -0.2876
-2.7657 ESCORT -0.2869
-3.1490 EVERYONE -0.2979
-2.7608 EXIT -0.2491
-3.2903 EXIT, -0.2876
-3.1032 FACE -0.2932
-3.5591 FEMALE -0.2817
-2.5121 FIND -0.2531
-1.9977 FOLLOW -0.2845
-3.4500 FOOD -0.2820
-2.8360 FOR -0.2692
-4.4042 FORK -0.2983
-2.6882 FRANCIS -0.2539
-3.5011 FRANCIS, -0.2929
-2.1961 FROM -0.2708
-3.6261 FRONT -0.2997
-2.8302 FRUITS -0.2637
-4.2281 GARBAGE -0.2835
-3.3073 GENDER -0.3002
-3.4748 GET -0.2708
-4.4042 GIRL -0.2929
-4.7053 GIRL, -0.2929
-4.4042 GIRLS -0.2835
-2.6678 GIVE -0.2634
-2.4108 GO -0.2905
-4.4042 GRAPE -0.3010
-3.5591 GRASP -0.2708
-3.0618 GREET -0.2924
-3.7510 GUESTS -0.2979
-2.7321 GUIDE -0.2864
-3.5913 HEAVIEST -0.2989
-2.1176 HER -0.2552
-2.9271 HER, -0.2929
-2.1054 HIM -0.2558
-2.9571 HIM, -0.2929
-3.2739 HIS -0.3005
-2.7368 HOW -0.3002
-2.1382 IN -0.2708
-2.7230 INTRODUCE -0.2929
-4.0063 IS -0.3010
-2.5149 IT -0.2886
-2.9344 JAMES -0.2539
-4.2281 JAMES, -0.2929
-2.9494 JENNIFER -0.2539
-4.2281 JENNIFER, -0.2929
-2.9810 JOHN -0.2539
-3.6261 JOKE -0.2725
-4.4042 JUICE -0.2877
-3.8602 JUNK -0.2835
-2.6015 KITCHEN -0.2600
-4.0063 KITCHEN, -0.2998
-4.4042 KITCHEN. -0.2835
-4.2281 KNIFE -0.2900
-3.4748 LARGEST -0.2987
-2.6371 LEAD -0.2864
-3.1142 LEAVE -0.2835
-2.8728 LEFT -0.2964
-3.4748 LIGHTEST -0.2983
-3.0425 LINDA -0.2539
-3.9271 LINDA, -0.2929
-3.8602 LITTER -0.2835
-2.5011 LIVING -0.2983
-2.8540 LOCATE -0.2692
-2.8360 LOOK -0.3004
-3.8602 LYING -0.3010
-3.6639 MAIN -0.2997
-3.9271 MALE -0.2817
-3.9271 MAN -0.2897
-2.7368 MANY -0.2961
-3.1032 MARY -0.2539
-3.4748 MAY -0.2997
-2.0608 ME -0.2505
-1.9329 MEET -0.2916
-3.6261 MEN -0.2802
-3.0151 MICHAEL -0.2539
-4.2281 MICHAEL, -0.2929
-4.0063 MONTH -0.2725
-3.1612 MOST -0.3002
-3.4748 MY -0.3009
-3.2139 NAME -0.2716
-2.4573 NAVIGATE -0.2905
-3.6639 NEATEN -0.2708
-4.0063 NOODLES -0.2877
-2.7140 OBJECT -0.2899
-3.7510 OBJECTS -0.2992
-2.7185 OF -0.2708
-2.3789 ON -0.2708
-3.9271 OP -0.2708
-3.3073 ORANGE -0.2735
-4.2281 ORANGE, -0.2929
-4.0063 ORDER -0.2708
-3.2429 OUT -0.2708
-3.4042 PAPRIKA -0.2755
-4.4042 PAPRIKA, -0.2929
-2.8728 PATRICIA -0.2727
-4.0063 PATRICIA, -0.2929
-3.0063 PEOPLE -0.2979
-2.4175 PERSON -0.2821
-4.0063 PERSON, -0.2929
-3.6261 PICK -0.3008
-3.0925 PLACE -0.2694
-1.9073 PLEASE -0.2715
-4.7053 POD -0.2983
-3.1255 POINTING -0.2905
-3.3435 POSE -0.3002
-4.0063 POTATO -0.3010
-4.7053 PRINGLES -0.2905
-3.8602 PROVIDE -0.3003
-2.9571 PUT -0.2694
-2.9649 QUESTION -0.2725
-3.1142 RAISING -0.3007
-3.6639 REAR -0.2997
-2.9893 RIGHT -0.2964
-3.0063 ROBERT -0.2539
-3.8602 ROBERT, -0.2929
-2.8076 ROBIN -0.2539
-3.7053 ROBIN, -0.2929
-2.4086 ROBOT -0.2956
-2.2369 ROOM -0.2600
-3.8602 ROOM, -0.2984
-3.4748 ROOM. -0.2835
-3.2581 S -0.2705
-4.2281 SAUSAGES -0.2844
-4.7053 SAUSAGES, -0.2929
-3.2001 SAY -0.2692
-4.0063 SCRUBBY -0.2877
-4.1032 SERVE -0.3003
-2.9271 SIDE -0.2970
-2.4984 SINK -0.2484
-3.3073 SINK, -0.2855
-3.6261 SITTING -0.2716
-4.7053 SITTING, -0.2929
-2.7185 SKYLER -0.2539
-3.5591 SKYLER, -0.2929
-3.4500 SMALLEST -0.2978
-3.1490 SNACKS -0.2637
-3.7053 SOMETHING -0.3009
-4.2281 SPONGE -0.2983
-4.2281 SPOON -0.2793
-4.7053 SPRITE -0.3006
-3.6261 STANDING -0.2750
-4.2281 STANDING, -0.2929
-2.9199 STORAGE -0.2975
-3.3251 STUFF -0.2637
-4.2281 SUITCASE -0.2905
-2.0967 TABLE -0.2462
-2.8728 TABLE, -0.2849
-3.1738 TABLEWARE -0.2637
-2.4476 TAKE -0.2552
-3.3830 TAXI -0.2835
-3.8602 TEAM -0.3008
-4.2281 TEAM'S -0.3007
-2.3143 TELL -0.2651
-1.1730 THE -0.2648
-3.1142 THEIR -0.3000
-2.9893 THERE -0.3001
-3.4265 THINNEST -0.2987
-3.0718 THREE -0.2978
-3.9271 TIDY -0.3010
-3.7053 TIME -0.2725
-1.6207 TO -0.2523
-4.1032 TODAY -0.2725
-4.7053 TOMORROW -0.2835
-3.8602 TOP -0.3002
-3.8022 TRASH -0.2835
-2.9729 TRAY -0.2548
-4.0063 TRAY, -0.2929
-4.2281 TROLLEY -0.2905
-3.3628 UBER -0.2835
-3.9271 UNDER -0.2708
-3.3435 UP -0.2708
-4.0063 VALISE -0.2905
-4.2281 WASTE -0.2835
-3.4748 WAVING -0.2897
-4.4042 WAVING, -0.2929
-4.0063 WEEK -0.2835
-3.2903 WHAT -0.3007
-3.4748 WHAT'S -0.2708
-3.4500 WHICH -0.3001
-3.5591 WILL -0.2997
-2.9649 WILLIAM -0.2727
-4.0063 WILLIAM, -0.2929
-4.4042 WOMAN -0.2897
-4.7053 WOMAN, -0.2929
-3.5913 WOMEN -0.2802
-2.0540 YOU -0.2658
-3.7053 YOUR -0.3009
-3.7053 YOURSELF -0.2725

\2-grams:
-2.3490 <s> ACCOMPANY -0.2141
-2.3032 <s> ANSWER 0.0000
-2.9053 <s> ARRANGE 0.0000
-1.6748 <s> BRING -0.0146
-2.5628 <s> CLEAN 0.0000
-2.1271 <s> CONTACT -0.0580
-1.0033 <s> COULD 0.0000
-2.2240 <s> DELIVER -0.1116
-3.0022 <s> DISTRIBUTE 0.0000
-2.6042 <s> DUMP 0.0000
-2.5250 <s> ESCORT -0.2591
-2.2063 <s> FACE -0.0414
-1.9321 <s> FIND -0.1249
-1.7409 <s> FOLLOW -0.2481
-2.7011 <s> GET 0.0000
-1.8334 <s> GIVE -0.0195
-1.7409 <s> GO 0.0000
-2.7011 <s> GRASP 0.0000
-2.1571 <s> GREET 0.0000
-2.3738 <s> GUIDE -0.2548
-2.4001 <s> LEAD -0.2520
-2.0857 <s> LOCATE 0.0000
-2.1893 <s> LOOK 0.0000
-1.2313 <s> MEET -0.0640
-1.6748 <s> NAVIGATE 0.0000
-2.6042 <s> NEATEN 0.0000
-3.1271 <s> ORDER 0.0000
-2.6500 <s> PICK 0.0000
-2.9053 <s> PLACE -0.2623
-1.2862 <s> PLEASE -0.0048
-3.0022 <s> PROVIDE -0.1091
-2.6500 <s> PUT -0.2474
-1.3076 <s> ROBOT 0.0000
-3.0022 <s> SAY -0.1076
-3.1271 <s> SERVE 0.0000
-1.8261 <s> TAKE -0.1672
-1.4489 <s> TELL -0.0070
-3.3032 <s> TIDY 0.0000
-1.9510 A BOY 0.0000
-1.3867 A FEMALE -0.0843
-2.1271 A GIRL 0.0000
-2.4281 A GIRL, 0.0000
-1.3490 A JOKE 0.0000
-1.8261 A MALE -0.1249
-1.6500 A MAN 0.0000
-0.8599 A PERSON -0.1531
-0.6878 A QUESTION 0.0000
-2.1271 A WOMAN 0.0000
-2.4281 A WOMAN, 0.0000
-0.3010 ABOUT YOURSELF 0.0000
-0.3010 ABOVE THE -0.2977
-1.5611 ACCOMPANY ALEX -0.2711
-1.7830 ACCOMPANY CHARLIE -0.2709
-2.2601 ACCOMPANY ELIZABETH -0.2617
-1.7830 ACCOMPANY FRANCIS -0.2358
-0.8129 ACCOMPANY HER -0.0998
-0.8451 ACCOMPANY HIM -0.0885
-1.7830 ACCOMPANY JAMES -0.2503
-2.2601 ACCOMPANY JENNIFER -0.2612
-2.2601 ACCOMPANY JOHN -0.2757
-1.6580 ACCOMPANY MICHAEL -0.2592
-1.9590 ACCOMPANY PATRICIA -0.2814
-2.2601 ACCOMPANY ROBERT -0.2742
-1.7830 ACCOMPANY ROBIN -0.2667
-1.4819 ACCOMPANY SKYLER -0.2538
-1.6580 ACCOMPANY WILLIAM -0.2464
-1.4771 ALEX </s> -0.3010
-1.2139 ALEX AND -0.1626
-0.5740 ALEX AT 0.0000
-1.1413 ALEX FROM 0.0000
-1.1761 ALEX TO -0.0883
-0.3010 ALEX, AND -0.2064
-0.3010 ALL THE -0.2980
-1.5418 AND ACCOMPANY -0.1482
-1.8270 AND ANSWER 0.0000
-1.6831 AND ASK 0.0000
-2.6721 AND BRING -0.2950
-2.0437 AND DELIVER -0.2322
-1.4748 AND ESCORT -0.1058
-1.0895 AND FOLLOW -0.1634
-2.6721 AND GIVE -0.2930
-1.4291 AND GO 0.0000
-1.4229 AND GUIDE -0.0951
-1.2919 AND INTRODUCE 0.0000
-1.3199 AND LEAD -0.0902
-1.5499 AND NAVIGATE 0.0000
-1.7427 AND PLACE -0.0685
-1.6407 AND PUT -0.0907
-1.9124 AND SAY 0.0000
-1.3603 AND TAKE -0.1895
-2.0700 AND TELL -0.2784
-0.3010 ANSWER A -0.2013
-1.5911 APPLE </s> -0.3010
-1.8921 APPLE AND -0.2910
-0.4007 APPLE FROM 0.0000
-1.5911 APPLE IN 0.0000
-1.8921 APPLE ON -0.0141
-1.8921 APPLE THERE 0.0000
-1.8921 APPLE TO -0.2936
-1.5682 ARE BOYS 0.0000
-1.8692 ARE FEMALE -0.2518
-2.0453 ARE GIRLS 0.0000
-1.8692 ARE LYING 0.0000
-2.0453 ARE MALE -0.2218
-1.8692 ARE MEN -0.2430
-0.6303 ARE ON -0.0141
-1.6474 ARE SITTING -0.1996
-1.3050 ARE STANDING -0.0348
-1.0911 ARE THE -0.2999
-1.5682 ARE WOMEN -0.1871
-1.5682 ARM AND -0.2907
-0.3252 ARM IN 0.0000
-0.3010 ARM, AND -0.2945
-0.5563 ARRANGE DRINKS -0.1700
-0.6532 ARRANGE SNACKS -0.1513
-0.5699 ASK HER -0.2096
-0.6368 ASK HIM -0.2090
-0.3010 AT THE -0.1716
-0.3332 BACK </s> -0.3010
-1.7024 BACK DOOR 0.0000
-1.7993 BACK ENTRANCE -0.2086
-0.3010 BAG TO -0.0883
-0.3010 BAGGAGE TO -0.0883
-0.7035 BED </s> -0.3010
-0.8062 BED AND -0.1175
-1.3291 BED FOLLOW -0.1634
-1.5843 BED MEET -0.2414
-1.2419 BED TO -0.0883
-1.8062 BED YOU -0.2852
-0.8293 BED, FOLLOW -0.2486
-0.5863 BED, MEET -0.2753
-1.0334 BED, YOU -0.2857
-0.3971 BEDROOM </s> -0.3010
-1.6232 BEDROOM AND -0.2891
-1.3600 BEDROOM ARE -0.2311
-2.4014 BEDROOM FIND -0.2693
-2.4014 BEDROOM LOCATE -0.2279
-2.1004 BEDROOM LOOK 0.0000
-1.7993 BEDROOM TO -0.0883
-0.3010 BEDROOM, FIND -0.2693
-0.3010 BEDROOM. </s> -0.3010
-0.3010 BEHIND THE -0.2985
-0.9700 BIGGEST CLEANING 0.0000
-1.1461 BIGGEST CUTLERY -0.2139
-1.4472 BIGGEST FOOD -0.2499
-1.4472 BIGGEST FRUITS -0.2952
-0.8451 BIGGEST OBJECT -0.1022
-1.4472 BIGGEST SNACKS -0.2825
-1.1461 BIGGEST TABLEWARE -0.2009
-0.5959 BOOKCASE </s> -0.3010
-0.9848 BOOKCASE AND -0.1231
-1.2711 BOOKCASE FOLLOW -0.1634
-2.4472 BOOKCASE LOCATE -0.1487
-2.4472 BOOKCASE LOOK 0.0000
-1.4058 BOOKCASE MEET -0.2171
-1.4472 BOOKCASE TO -0.0883
-2.1461 BOOKCASE YOU -0.2852
-1.6232 BOOKCASE, FIND -0.2430
-0.6232 BOOKCASE, FOLLOW -0.2486
-1.6232 BOOKCASE, LOCATE -0.1487
-1.3222 BOOKCASE, LOOK 0.0000
-0.8451 BOOKCASE, MEET -0.2846
-1.6232 BOOKCASE, YOU -0.2942
-1.6902 BOWL </s> -0.3010
-0.9120 BOWL AND -0.2788
-0.9120 BOWL FROM 0.0000
-1.2131 BOWL IN 0.0000
-1.1461 BOWL ON -0.0141
-1.5141 BOWL THERE 0.0000
-1.1461 BOWL TO -0.0762
-0.3010 BOWL, AND -0.2778
-0.4771 BOY AND -0.2891
-0.7782 BOY IN 0.0000
-0.3010 BOYS </s> -0.3010
-2.1644 BRING CLEANING 0.0000
-2.4654 BRING DRINKS -0.1700
-2.1644 BRING FOOD -0.2361
-1.9883 BRING FRUITS -0.2455
-1.8633 BRING IT -0.1752
-0.4831 BRING ME -0.1556
-1.7664 BRING MY -0.1498
-0.9469 BRING THE -0.2847
-0.3010 CAB </s> -0.3010
-0.3010 CAN FIND -0.2268
-0.3010 CASCADE POD 0.0000
-1.0000 CEREAL FROM 0.0000
-1.0000 CEREAL ON -0.0141
-0.5229 CEREAL TO -0.0883
-1.6857 CHARLIE </s> -0.3010
-1.2086 CHARLIE AND -0.1822
-0.4553 CHARLIE AT 0.0000
-1.5888 CHARLIE FROM 0.0000
-1.3847 CHARLIE TO -0.0883
-0.3010 CHARLIE, AND -0.2033
-0.3010 CHILDREN IN 0.0000
-0.3979 CHIPS FROM 0.0000
-1.0000 CHIPS TO -0.0883
-0.3010 CHOCOLATE DRINK 0.0000
-0.6232 CLEAN OUT 0.0000
-0.5819 CLEAN UP 0.0000
-0.3010 CLEANING STUFF 0.0000
-1.2389 CLOTH </s> -0.3010
-0.9756 CLOTH AND -0.2788
-0.9031 CLOTH FROM 0.0000
-1.2389 CLOTH IN 0.0000
-1.5399 CLOTH ON -0.0141
-1.0170 CLOTH THERE 0.0000
-1.5399 CLOTH TO -0.0762
-0.3010 CLOTH, AND -0.2829
-0.9031 COKE </s> -0.3010
-0.9031 COKE ON -0.0141
-0.6021 COKE TO -0.0883
-1.0078 CONTACT CHARLIE -0.1136
-1.5721 CONTACT ELIZABETH -0.1473
-1.4472 CONTACT FRANCIS -0.1591
-1.5721 CONTACT JAMES -0.1212
-1.7482 CONTACT JENNIFER -0.1418
-2.0492 CONTACT JOHN -0.1622
-1.3502 CONTACT LINDA -0.1226
-1.5721 CONTACT MARY -0.1303
-1.5721 CONTACT MICHAEL -0.1549
-1.5721 CONTACT PATRICIA -0.1020
-1.3502 CONTACT ROBERT -0.1271
-1.3502 CONTACT ROBIN -0.1277
-1.2711 CONTACT SKYLER -0.1272
-1.7482 CONTACT WILLIAM -0.1405
-1.2553 CONTAINERS FROM 0.0000
-0.8573 CONTAINERS IN 0.0000
-0.7782 CONTAINERS ON -0.0141
-0.8573 CONTAINERS THERE 0.0000
-0.3934 CORRIDOR </s> -0.3010
-1.5351 CORRIDOR AND -0.2853
-1.4771 CORRIDOR ARE -0.2288
-2.0792 CORRIDOR LOCATE -0.2279
-1.9031 CORRIDOR LOOK 0.0000
-1.9031 CORRIDOR TO -0.0883
-0.6021 CORRIDOR, FIND -0.2693
-0.6021 CORRIDOR, LOCATE -0.2279
-0.3010 CORRIDOR. </s> -0.3010
-0.7964 COUCH </s> -0.3010
-0.7827 COUCH AND -0.1175
-1.1739 COUCH FOLLOW -0.1634
-1.4427 COUCH MEET -0.2068
-1.2464 COUCH TO -0.0883
-1.8107 COUCH YOU -0.2837
-0.7597 COUCH, FOLLOW -0.2486
-0.6214 COUCH, MEET -0.2769
-1.0607 COUCH, YOU -0.2766
-0.3010 COULD YOU -0.0451
-0.3372 COUNTER </s> -0.3010
-1.6990 COUNTER AND -0.2829
-1.6990 COUNTER FIND -0.2430
-0.3010 COUNTER, FIND -0.2430
-0.4771 COUNTRY </s> -0.3010
-0.7782 COUNTRY TO -0.0883
-0.6021 CRACKERS </s> -0.3010
-0.6021 CRACKERS TO -0.2936
-1.1461 CUP AND -0.2931
-0.3680 CUP TO -0.0762
-0.3729 CUPBOARD </s> -0.3010
-1.2268 CUPBOARD AND -0.2788
-2.0719 CUPBOARD FIND -0.2430
-2.0719 CUPBOARD LOOK 0.0000
-0.3010 CUPBOARD, LOOK 0.0000
-1.1663 CUTLERY </s> -0.3010
-0.9445 CUTLERY FROM 0.0000
-0.8653 CUTLERY IN 0.0000
-1.1663 CUTLERY ON -0.0141
-1.1663 CUTLERY THERE 0.0000
-1.3424 CUTLERY TO -0.0762
-0.7782 DAY IS 0.0000
-0.4771 DAY OF 0.0000
-0.3010 DEBRIS </s> -0.3010
-1.5873 DELIVER CLEANING 0.0000
-2.0645 DELIVER CUTLERY -0.2808
-1.1614 DELIVER DRINKS -0.1700
-1.5873 DELIVER FOOD -0.2361
-1.2194 DELIVER FRUITS -0.2455
-0.8340 DELIVER IT -0.1752
-1.2863 DELIVER SNACKS -0.1513
-2.0645 DELIVER TABLEWARE -0.2946
-0.9853 DELIVER THE -0.2889
-0.6077 DESK </s> -0.3010
-0.9445 DESK AND -0.0991
-2.1875 DESK FIND -0.2430
-1.3746 DESK FOLLOW -0.1634
-1.4886 DESK MEET -0.2153
-1.3125 DESK TO -0.0883
-2.0114 DESK YOU -0.2766
-0.9031 DESK, FOLLOW -0.2486
-1.5051 DESK, LOCATE -0.1487
-1.2041 DESK, LOOK 0.0000
-0.6021 DESK, MEET -0.2831
-1.5051 DESK, YOU -0.2922
-0.6437 DINING ROOM -0.0044
-2.2148 DINING ROOM, 0.0000
-2.1179 DINING ROOM. 0.0000
-0.6646 DINING TABLE -0.0043
-1.3697 DINING TABLE, -0.0367
-0.7782 DISH FROM 0.0000
-0.7782 DISH IN 0.0000
-0.7782 DISH TO -0.0883
-0.8305 DISHWASHER </s> -0.3010
-0.9031 DISHWASHER AND -0.1175
-1.0151 DISHWASHER FOLLOW -0.1634
-1.2913 DISHWASHER MEET -0.2224
-1.2041 DISHWASHER TO -0.0883
-1.7684 DISHWASHER YOU -0.2766
-0.6864 DISHWASHER, FOLLOW -0.2486
-0.6284 DISHWASHER, MEET -0.2800
-1.2304 DISHWASHER, YOU -0.2837
-1.0000 DISTRIBUTE DRINKS -0.1700
-0.3979 DISTRIBUTE SNACKS -0.1513
-0.3010 DOOR AND -0.2783
-0.6690 DOWN </s> -0.3010
-0.8451 DOWN AND -0.2919
-0.8451 DOWN IN 0.0000
-0.4771 DRINK </s> -0.3010
-0.7782 DRINK FROM 0.0000
-1.2833 DRINKS </s> -0.3010
-1.6812 DRINKS FROM 0.0000
-1.0792 DRINKS IN 0.0000
-1.2833 DRINKS ON -0.0141
-1.5051 DRINKS THERE 0.0000
-0.5843 DRINKS TO -0.2781
-0.3010 DUMP THE -0.2989
-0.3010 ELDERS IN 0.0000
-2.0170 ELIZABETH </s> -0.3010
-1.1139 ELIZABETH AND -0.2061
-0.5257 ELIZABETH AT 0.0000
-1.0628 ELIZABETH FROM 0.0000
-1.5399 ELIZABETH TO -0.0883
-0.3010 ELIZABETH, AND -0.2642
-0.3991 END TABLE -0.0095
-0.9953 END TABLE, 0.0000
-0.7914 ENTRANCE </s> -0.3010
-0.7173 ENTRANCE AND -0.1175
-1.2208 ENTRANCE FOLLOW -0.1634
-1.5218 ENTRANCE MEET -0.2153
-1.3109 ENTRANCE TO -0.0883
-2.1239 ENTRANCE YOU -0.2837
-0.6173 ENTRANCE, FOLLOW -0.2486
-0.7220 ENTRANCE, MEET -0.2800
-1.1614 ENTRANCE, YOU -0.2766
-1.3955 ESCORT ALEX -0.2361
-2.2405 ESCORT CHARLIE -0.2827
-1.9395 ESCORT ELIZABETH -0.2478
-1.9395 ESCORT FRANCIS -0.2358
-0.7634 ESCORT HER -0.0998
-0.7220 ESCORT HIM -0.0885
-1.9395 ESCORT JAMES -0.2503
-1.7634 ESCORT JENNIFER -0.2612
-2.2405 ESCORT LINDA -0.2866
-2.2405 ESCORT MARY -0.2844
-2.2405 ESCORT PATRICIA -0.2781
-2.2405 ESCORT ROBIN -0.2871
-1.9395 ESCORT SKYLER -0.2897
-2.2405 ESCORT WILLIAM -0.2767
-0.3010 EVERYONE IN 0.0000
-0.7270 EXIT </s> -0.3010
-0.8653 EXIT AND -0.1607
-1.2913 EXIT FOLLOW -0.1634
-1.4674 EXIT MEET -0.2220
-1.0994 EXIT TO -0.0883
-1.9445 EXIT YOU -0.2922
-0.5699 EXIT, FOLLOW -0.2486
-0.7160 EXIT, MEET -0.2753
-1.4150 EXIT, YOU -0.2922
-1.6021 FACE ALEX -0.1663
-1.0580 FACE CHARLIE -0.1136
-1.9031 FACE ELIZABETH -0.1473
-1.4260 FACE FRANCIS -0.1591
-1.2041 FACE JAMES -0.1212
-1.2041 FACE JENNIFER -0.1418
-1.6021 FACE JOHN -0.1622
-1.9031 FACE LINDA -0.1226
-1.6021 FACE MICHAEL -0.1549
-1.4260 FACE PATRICIA -0.1020
-1.4260 FACE ROBERT -0.1271
-1.2041 FACE ROBIN -0.1277
-1.9031 FACE SKYLER -0.1272
-0.9700 FEMALE </s> -0.3010
-0.4929 FEMALE PERSON -0.2525
-1.1461 FEMALE PERSON, 0.0000
-1.1517 FIND A -0.1910
-2.0170 FIND ALEX -0.1663
-1.7160 FIND CHARLIE -0.1136
-2.4942 FIND ELIZABETH -0.1473
-2.1931 FIND FRANCIS -0.1591
-1.1517 FIND HER -0.2885
-1.0628 FIND HIM -0.2860
-2.1931 FIND JENNIFER -0.1418
-2.4942 FIND JOHN -0.1622
-2.1931 FIND LINDA -0.1226
-2.0170 FIND MARY -0.1303
-2.1931 FIND MICHAEL -0.1549
-2.1931 FIND PATRICIA -0.1020
-2.4942 FIND ROBERT -0.1271
-1.7952 FIND ROBIN -0.1277
-2.0170 FIND SKYLER -0.1272
-0.9031 FIND THE -0.2837
-1.6491 FIND THREE -0.2054
-1.7160 FIND WILLIAM -0.1405
-1.8625 FOLLOW ALEX -0.2526
-2.1635 FOLLOW CHARLIE -0.2804
-2.3096 FOLLOW ELIZABETH -0.2571
-1.7782 FOLLOW FRANCIS -0.2430
-0.8502 FOLLOW HER -0.0944
-1.2304 FOLLOW HER, 0.0000
-0.8847 FOLLOW HIM -0.0876
-1.2604 FOLLOW HIM, 0.0000
-2.1635 FOLLOW JAMES -0.2666
-2.1055 FOLLOW JENNIFER -0.2484
-2.1635 FOLLOW JOHN -0.2580
-2.3096 FOLLOW LINDA -0.2717
-2.3096 FOLLOW MARY -0.2553
-2.1055 FOLLOW MICHAEL -0.2493
-2.4065 FOLLOW PATRICIA -0.2814
-2.2304 FOLLOW ROBERT -0.2742
-2.0544 FOLLOW ROBIN -0.2697
-2.0086 FOLLOW SKYLER -0.2612
-2.3096 FOLLOW WILLIAM -0.2725
-1.5563 FOOD FROM 0.0000
-0.7112 FOOD IN 0.0000
-0.9542 FOOD ON -0.0141
-1.5563 FOOD THERE 0.0000
-0.8573 FOOD TO -0.0762
-0.8085 FOR A -0.1804
-0.5682 FOR THE -0.2822
-1.1289 FOR THREE -0.1519
-0.3010 FORK FROM 0.0000
-1.6191 FRANCIS </s> -0.3010
-1.2389 FRANCIS AND -0.1626
-0.5546 FRANCIS AT 0.0000
-0.9958 FRANCIS FROM 0.0000
-1.4150 FRANCIS TO -0.0883
-0.3010 FRANCIS, AND -0.1626
-0.3010 FROM THE -0.1306
-0.6021 FRONT DOOR 0.0000
-0.6021 FRONT ENTRANCE -0.2086
-0.9456 FRUITS </s> -0.3010
-1.8751 FRUITS FROM 0.0000
-0.6576 FRUITS IN 0.0000
-1.5740 FRUITS ON -0.0141
-2.1761 FRUITS THERE 0.0000
-0.9208 FRUITS TO -0.0762
-0.3010 GARBAGE </s> -0.3010
-0.3010 GENDER OF 0.0000
-0.3010 GET THE -0.2911
-0.3010 GIRL AND -0.2919
-0.3010 GIRL, AND -0.2973
-0.3010 GIRLS </s> -0.3010
-2.0374 GIVE CLEANING 0.0000
-2.3385 GIVE CUTLERY -0.2808
-1.8613 GIVE DRINKS -0.1700
-1.4354 GIVE FRUITS -0.2455
-1.7364 GIVE IT -0.1752
-0.4194 GIVE ME -0.1556
-1.8613 GIVE SNACKS -0.1513
-1.6395 GIVE THE -0.2916
-0.3010 GO TO -0.0883
-0.3010 GRAPE JUICE 0.0000
-0.3010 GRASP THE -0.2901
-1.2455 GREET ALEX -0.1663
-1.6435 GREET CHARLIE -0.1136
-1.6435 GREET ELIZABETH -0.1473
-1.3424 GREET FRANCIS -0.1591
-1.9445 GREET JAMES -0.1212
-1.2455 GREET JENNIFER -0.1418
-1.6435 GREET JOHN -0.1622
-1.6435 GREET LINDA -0.1226
-1.6435 GREET MARY -0.1303
-1.9445 GREET MICHAEL -0.1549
-1.3424 GREET PATRICIA -0.1020
-1.6435 GREET ROBERT -0.1271
-1.3424 GREET ROBIN -0.1277
-1.1663 GREET SKYLER -0.1272
-1.6435 GREET WILLIAM -0.1405
-0.3010 GUESTS IN 0.0000
-1.9731 GUIDE ALEX -0.2361
-2.2742 GUIDE CHARLIE -0.2827
-2.2742 GUIDE ELIZABETH -0.2883
-1.9731 GUIDE FRANCIS -0.2840
-0.7690 GUIDE HER -0.0998
-0.6831 GUIDE HIM -0.0885
-1.9731 GUIDE JAMES -0.2784
-1.7970 GUIDE JOHN -0.2442
-2.2742 GUIDE LINDA -0.2866
-1.9731 GUIDE MICHAEL -0.2829
-2.2742 GUIDE PATRICIA -0.2781
-1.9731 GUIDE ROBERT -0.2742
-2.2742 GUIDE ROBIN -0.2871
-1.7970 GUIDE SKYLER -0.2538
-1.9731 GUIDE WILLIAM -0.2767
-1.4150 HEAVIEST CONTAINERS -0.2218
-1.4150 HEAVIEST FOOD -0.2499
-0.9379 HEAVIEST FRUITS -0.2833
-0.7160 HEAVIEST OBJECT -0.1580
-1.4150 HEAVIEST OBJECTS 0.0000
-1.1139 HEAVIEST TABLEWARE -0.2009
-0.9593 HER </s> -0.3010
-1.1034 HER AND -0.1721
-1.5463 HER AT 0.0000
-1.1484 HER BACK -0.0300
-2.1898 HER CAB 0.0000
-2.4116 HER TAXI 0.0000
-0.7214 HER TO -0.0454
-1.9345 HER UBER 0.0000
-0.3010 HER, AND -0.1721
-0.9278 HIM </s> -0.3010
-1.1016 HIM AND -0.1721
-1.4695 HIM AT 0.0000
-1.1085 HIM BACK -0.0300
-0.7191 HIM TO -0.0422
-0.3010 HIM, AND -0.1721
-0.8293 HIS CAB 0.0000
-0.6185 HIS TAXI 0.0000
-0.9542 HIS UBER 0.0000
-0.3010 HOW MANY 0.0000
-0.3010 IN THE -0.2410
-1.0045 INTRODUCE HER -0.2096
-0.9031 INTRODUCE HIM -0.2090
-0.5590 INTRODUCE IT -0.1752
-0.3979 IS TODAY 0.0000
-1.0000 IS TOMORROW 0.0000
-0.6049 IT ON -0.0141
-0.5993 IT TO -0.2815
-1.7709 JAMES </s> -0.3010
-1.4698 JAMES AND -0.2261
-0.4698 JAMES AT 0.0000
-1.2268 JAMES FROM 0.0000
-1.2937 JAMES TO -0.0883
-0.3010 JAMES, AND -0.2239
-1.5798 JENNIFER </s> -0.3010
-1.2788 JENNIFER AND -0.1983
-0.5128 JENNIFER AT 0.0000
-1.0569 JENNIFER FROM 0.0000
-1.5798 JENNIFER TO -0.0883
-0.3010 JENNIFER, AND -0.2261
-1.5482 JOHN </s> -0.3010
-1.1222 JOHN AND -0.1626
-0.5629 JOHN AT 0.0000
-1.1802 JOHN FROM 0.0000
-1.2472 JOHN TO -0.0883
-0.4260 JOKE </s> -0.3010
-0.9031 JOKE TO -0.0883
-0.6021 JUICE FROM 0.0000
-0.6021 JUICE TO -0.0883
-0.3010 JUNK </s> -0.3010
-0.3836 KITCHEN </s> -0.3010
-1.8028 KITCHEN AND -0.2853
-1.6267 KITCHEN ARE -0.2425
-2.4048 KITCHEN FIND -0.2693
-1.9277 KITCHEN LOCATE -0.2279
-2.4048 KITCHEN LOOK 0.0000
-1.5597 KITCHEN TO -0.0883
-0.3979 KITCHEN, LOCATE -0.2279
-1.0000 KITCHEN, LOOK 0.0000
-0.3010 KITCHEN. </s> -0.3010
-0.7782 KNIFE THERE 0.0000
-0.4771 KNIFE TO -0.0883
-1.5315 LARGEST CLEANING 0.0000
-1.2304 LARGEST CONTAINERS -0.2218
-1.5315 LARGEST CUTLERY -0.2486
-1.5315 LARGEST DRINKS -0.2778
-1.5315 LARGEST FOOD -0.2499
-0.9294 LARGEST OBJECT -0.1022
-1.2304 LARGEST OBJECTS 0.0000
-0.8325 LARGEST TABLEWARE -0.2319
-2.0682 LEAD ALEX -0.2711
-1.8921 LEAD CHARLIE -0.2709
-1.8921 LEAD ELIZABETH -0.2478
-1.8921 LEAD FRANCIS -0.2548
-0.7564 LEAD HER -0.0998
-0.6790 LEAD HIM -0.0885
-2.3692 LEAD JAMES -0.2784
-2.0682 LEAD JENNIFER -0.2894
-1.8921 LEAD JOHN -0.2442
-2.3692 LEAD LINDA -0.2768
-1.8921 LEAD MARY -0.2553
-2.0682 LEAD PATRICIA -0.2781
-2.0682 LEAD ROBERT -0.2742
-2.3692 LEAD ROBIN -0.2871
-2.3692 LEAD SKYLER -0.2897
-0.3010 LEAVE </s> -0.3010
-0.7718 LEFT ARM 0.0000
-1.8325 LEFT ARM, 0.0000
-0.8113 LEFT IN 0.0000
-0.8783 LEFT MOST 0.0000
-1.5315 LEFT OF 0.0000
-1.5315 LIGHTEST CUTLERY -0.2704
-1.2304 LIGHTEST DRINKS -0.2681
-1.5315 LIGHTEST FRUITS -0.2893
-0.9294 LIGHTEST OBJECT -0.1022
-0.7533 LIGHTEST OBJECTS 0.0000
-1.5315 LIGHTEST SNACKS -0.2825
-1.2304 LIGHTEST TABLEWARE -0.2009
-1.9638 LINDA </s> -0.3010
-1.1856 LINDA AND -0.2264
-0.4724 LINDA AT 0.0000
-1.2648 LINDA FROM 0.0000
-1.4867 LINDA TO -0.0883
-0.3010 LINDA, AND -0.2038
-0.3010 LITTER </s> -0.3010
-0.3438 LIVING ROOM 0.0000
-2.0280 LIVING ROOM, -0.1091
-1.4260 LIVING ROOM. 0.0000
-0.8099 LOCATE A -0.1804
-0.5290 LOCATE THE -0.2822
-1.3072 LOCATE THREE -0.1794
-0.3010 LOOK FOR 0.0000
-0.3010 LYING DOWN 0.0000
-0.5643 MAIN DOOR 0.0000
-0.6435 MAIN ENTRANCE -0.2086
-0.7782 MALE </s> -0.3010
-1.0792 MALE PERSON -0.2965
-0.6021 MALE PERSON, 0.0000
-0.6021 MAN AND -0.2891
-0.6021 MAN IN 0.0000
-2.2695 MANY APPLE -0.2954
-1.7924 MANY BOWL -0.2875
-1.7924 MANY CLEANING 0.0000
-1.2695 MANY CLOTH -0.2571
-1.5705 MANY CONTAINERS -0.2361
-1.7924 MANY CUTLERY -0.2704
-1.7924 MANY DRINKS -0.2872
-2.2695 MANY FOOD -0.2888
-2.2695 MANY FRUITS -0.2981
-2.2695 MANY KNIFE -0.2218
-2.2695 MANY ORANGE -0.2923
-2.2695 MANY PAPRIKA -0.2900
-0.6567 MANY PEOPLE 0.0000
-2.2695 MANY SNACKS -0.2950
-2.2695 MANY SPRITE 0.0000
-1.4244 MANY TABLEWARE -0.2539
-1.2695 MANY TRAY -0.2588
-1.4260 MARY </s> -0.3010
-1.4260 MARY AND -0.2459
-0.4881 MARY AT 0.0000
-1.2041 MARY FROM 0.0000
-1.4260 MARY TO -0.0883
-0.3010 MAY FIND -0.2268
-1.3327 ME </s> -0.3010
-0.9770 ME HOW 0.0000
-0.5458 ME THE -0.2631
-1.6232 ME WHAT -0.0764
-1.7150 ME WHAT'S 0.0000
-1.6902 ME WHICH 0.0000
-1.4501 MEET ALEX -0.1285
-1.9942 MEET ALEX, 0.0000
-1.3658 MEET CHARLIE -0.0701
-2.1703 MEET CHARLIE, 0.0000
-1.6420 MEET ELIZABETH -0.0969
-2.7723 MEET ELIZABETH, 0.0000
-1.3573 MEET FRANCIS -0.1228
-1.8692 MEET FRANCIS, 0.0000
-1.5820 MEET JAMES -0.0984
-2.5962 MEET JAMES, 0.0000
-1.6931 MEET JENNIFER -0.1074
-2.5962 MEET JENNIFER, 0.0000
-1.6420 MEET JOHN -0.1146
-1.6931 MEET LINDA -0.0776
-2.2952 MEET LINDA, 0.0000
-1.8181 MEET MARY -0.1055
-1.7723 MEET MICHAEL -0.1160
-2.5962 MEET MICHAEL, 0.0000
-1.5293 MEET PATRICIA -0.0760
-2.3744 MEET PATRICIA, 0.0000
-1.6931 MEET ROBERT -0.0934
-2.2283 MEET ROBERT, 0.0000
-1.4936 MEET ROBIN -0.0801
-2.0734 MEET ROBIN, 0.0000
-1.3330 MEET SKYLER -0.0888
-1.9272 MEET SKYLER, 0.0000
-1.5962 MEET WILLIAM -0.0921
-2.3744 MEET WILLIAM, 0.0000
-0.9031 MEN </s> -0.3010
-0.4260 MEN IN 0.0000
-1.2131 MICHAEL </s> -0.3010
-1.2131 MICHAEL AND -0.2239
-0.5441 MICHAEL AT 0.0000
-1.2923 MICHAEL FROM 0.0000
-1.3892 MICHAEL TO -0.0883
-0.3010 MICHAEL, AND -0.2239
-0.5229 MONTH </s> -0.3010
-0.6990 MONTH TO -0.0883
-0.3010 MOST OBJECT -0.1580
-1.2304 MY BAG 0.0000
-0.9294 MY BAGGAGE 0.0000
-1.0544 MY SUITCASE 0.0000
-1.0544 MY TROLLEY 0.0000
-0.8325 MY VALISE 0.0000
-1.0934 NAME </s> -0.3010
-0.4122 NAME OF 0.0000
-1.4914 NAME TO -0.0883
-0.3010 NAVIGATE TO -0.0883
-0.3010 NEATEN THE -0.2510
-0.6990 NOODLES FROM 0.0000
-0.5229 NOODLES TO -0.0883
-1.5933 OBJECT ABOVE 0.0000
-1.3892 OBJECT AT 0.0000
-1.4472 OBJECT BEHIND 0.0000
-0.5519 OBJECT FROM 0.0000
-1.0618 OBJECT ON 0.0000
-1.5141 OBJECT UNDER 0.0000
-0.3010 OBJECTS ON -0.0141
-0.3010 OF THE -0.2845
-0.3156 ON THE -0.2172
-1.7823 ON TOP 0.0000
-0.3010 OP THE -0.2423
-1.6990 ORANGE AND -0.2910
-0.4202 ORANGE FROM 0.0000
-1.6990 ORANGE IN 0.0000
-1.3979 ORANGE ON -0.0141
-1.6990 ORANGE THERE 0.0000
-1.6990 ORANGE TO -0.2936
-0.3010 ORANGE, AND -0.2881
-0.3010 ORDER THE -0.2604
-0.3010 OUT THE -0.2399
-1.3010 PAPRIKA AND -0.2829
-0.4559 PAPRIKA FROM 0.0000
-1.6021 PAPRIKA IN 0.0000
-1.6021 PAPRIKA THERE 0.0000
-1.3010 PAPRIKA TO -0.0762
-0.3010 PAPRIKA, AND -0.2900
-1.4346 PATRICIA AND -0.2642
-0.4346 PATRICIA AT 0.0000
-1.3554 PATRICIA FROM 0.0000
-1.2884 PATRICIA TO -0.0883
-0.3010 PATRICIA, AND -0.2217
-0.3010 PEOPLE IN 0.0000
-1.9868 PERSON AND -0.2891
-0.9760 PERSON AT 0.0000
-1.0206 PERSON IN 0.0000
-1.9868 PERSON LYING 0.0000
-1.0090 PERSON POINTING 0.0000
-0.9978 PERSON RAISING 0.0000
-1.7437 PERSON SITTING -0.1513
-2.5888 PERSON SITTING, 0.0000
-2.5888 PERSON STANDING -0.2825
-2.1117 PERSON STANDING, 0.0000
-1.3584 PERSON WAVING 0.0000
-2.2878 PERSON WAVING, 0.0000
-0.3010 PERSON, AND -0.2853
-0.3010 PICK UP 0.0000
-0.3823 PLACE IT -0.1770
-1.0687 PLACE THE -0.2922
-1.8949 PLEASE ACCOMPANY -0.2112
-2.4000 PLEASE ANSWER 0.0000
-2.4969 PLEASE ARRANGE 0.0000
-1.4458 PLEASE BRING -0.0203
-2.2539 PLEASE CLEAN 0.0000
-1.7768 PLEASE CONTACT -0.0779
-1.9850 PLEASE DELIVER -0.1231
-2.4969 PLEASE DUMP 0.0000
-2.1447 PLEASE ESCORT -0.2536
-2.0576 PLEASE FACE -0.1055
-1.7188 PLEASE FIND -0.1571
-1.5675 PLEASE FOLLOW -0.2481
-2.2539 PLEASE GET 0.0000
-1.4969 PLEASE GIVE -0.0157
-1.4862 PLEASE GO 0.0000
-2.4000 PLEASE GRASP 0.0000
-2.0576 PLEASE GREET -0.1559
-2.4969 PLEASE GUIDE -0.2869
-2.1959 PLEASE LEAD -0.2663
-1.9529 PLEASE LOCATE 0.0000
-1.8437 PLEASE LOOK 0.0000
-0.9655 PLEASE MEET -0.0640
-1.6366 PLEASE NAVIGATE 0.0000
-2.7980 PLEASE ORDER 0.0000
-2.7980 PLEASE PICK 0.0000
-2.7980 PLEASE PLACE -0.2623
-2.6219 PLEASE PROVIDE 0.0000
-2.6219 PLEASE PUT -0.2474
-2.4969 PLEASE SAY -0.0746
-3.0990 PLEASE SERVE -0.1761
-1.6518 PLEASE TAKE -0.1753
-1.2298 PLEASE TELL -0.0156
-2.6219 PLEASE TIDY 0.0000
-0.3010 POD FROM 0.0000
-0.3010 POINTING TO -0.0883
-0.3010 POSE OF 0.0000
-0.3010 POTATO CHIPS 0.0000
-0.3010 PRINGLES TO -0.0883
-0.4472 PROVIDE DRINKS -0.1700
-0.8451 PROVIDE SNACKS -0.1513
-0.4157 PUT IT -0.1770
-0.9353 PUT THE -0.2882
-0.5942 QUESTION </s> -0.3010
-0.6100 QUESTION TO -0.0883
-0.3010 RAISING THEIR 0.0000
-0.5643 REAR DOOR 0.0000
-0.6435 REAR ENTRANCE -0.2086
-0.8709 RIGHT ARM -0.0229
-0.7866 RIGHT IN 0.0000
-0.7866 RIGHT MOST 0.0000
-1.4150 RIGHT OF 0.0000
-1.6990 ROBERT </s> -0.3010
-1.3010 ROBERT AND -0.2186
-0.4815 ROBERT AT 0.0000
-1.3979 ROBERT FROM 0.0000
-1.2218 ROBERT TO -0.0883
-0.3010 ROBERT, AND -0.2264
-1.5966 ROBIN </s> -0.3010
-1.1573 ROBIN AND -0.1846
-0.4827 ROBIN AT 0.0000
-1.3536 ROBIN FROM 0.0000
-1.4997 ROBIN TO -0.0883
-0.3010 ROBIN, AND -0.1846
-0.3010 ROBOT PLEASE -0.0096
-0.3820 ROOM </s> -0.3010
-1.5933 ROOM AND -0.2853
-1.5653 ROOM ARE -0.2124
-2.2923 ROOM FIND -0.2693
-2.7694 ROOM LOCATE -0.2279
-2.4683 ROOM LOOK 0.0000
-1.6554 ROOM TO -0.0883
-0.8451 ROOM, FIND -0.2693
-0.8451 ROOM, LOCATE -0.2279
-0.6690 ROOM, LOOK 0.0000
-0.3010 ROOM. </s> -0.3010
-1.4472 S COUNTRY -0.1249
-1.0492 S NAME -0.2490
-0.4260 S THE -0.2959
-0.7782 SAUSAGES FROM 0.0000
-0.7782 SAUSAGES IN 0.0000
-0.7782 SAUSAGES TO -0.0883
-0.3010 SAUSAGES, AND -0.2931
-0.7648 SAY A -0.2811
-1.1072 SAY SOMETHING 0.0000
-0.8062 SAY THE -0.2998
-1.5051 SAY WHAT -0.2571
-1.2041 SAY YOUR 0.0000
-0.6990 SCRUBBY FROM 0.0000
-0.5229 SCRUBBY TO -0.0883
-0.6021 SERVE DRINKS -0.1700
-0.6021 SERVE SNACKS -0.1513
-0.3233 SIDE TABLE -0.0691
-1.6021 SIDE TABLE, -0.2781
-0.5256 SINK </s> -0.3010
-1.0929 SINK AND -0.1435
-1.4665 SINK FOLLOW -0.1634
-2.5079 SINK LOOK 0.0000
-1.3939 SINK MEET -0.1642
-1.4287 SINK TO -0.0883
-2.2068 SINK YOU -0.2942
-1.3979 SINK, FIND -0.2430
-0.5850 SINK, FOLLOW -0.2486
-1.6990 SINK, LOCATE -0.1487
-0.7959 SINK, MEET -0.2831
-1.6990 SINK, YOU -0.2927
-0.6812 SITTING </s> -0.3010
-1.0792 SITTING AND -0.2907
-0.6812 SITTING IN 0.0000
-0.3010 SITTING, AND -0.2945
-1.9868 SKYLER </s> -0.3010
-1.2464 SKYLER AND -0.1879
-0.4816 SKYLER AT 0.0000
-1.1117 SKYLER FROM 0.0000
-1.5888 SKYLER TO -0.0883
-0.3010 SKYLER, AND -0.2087
-1.5563 SMALLEST CLEANING 0.0000
-1.2553 SMALLEST CONTAINERS -0.2218
-0.9542 SMALLEST CUTLERY -0.2139
-1.2553 SMALLEST DRINKS -0.2778
-1.5563 SMALLEST FOOD -0.2888
-1.5563 SMALLEST FRUITS -0.2893
-0.8573 SMALLEST OBJECT -0.1022
-1.5563 SMALLEST SNACKS -0.2888
-1.5563 SMALLEST TABLEWARE -0.2319
-1.8573 SNACKS </s> -0.3010
-1.3802 SNACKS FROM 0.0000
-0.9542 SNACKS IN 0.0000
-1.5563 SNACKS ON -0.0141
-1.8573 SNACKS THERE 0.0000
-0.5351 SNACKS TO -0.0502
-0.3010 SOMETHING ABOUT 0.0000
-0.3010 SPONGE FROM 0.0000
-0.7782 SPOON AND -0.2931
-0.7782 SPOON FROM 0.0000
-0.7782 SPOON TO -0.0883
-0.3010 SPRITE THERE 0.0000
-0.3388 STANDING </s> -0.3010
-1.3802 STANDING AND -0.2957
-0.3010 STANDING, AND -0.2891
-0.3010 STORAGE TABLE -0.0691
-1.0792 STUFF </s> -0.3010
-1.2041 STUFF FROM 0.0000
-1.0792 STUFF IN 0.0000
-1.2041 STUFF ON -0.0141
-1.2041 STUFF THERE 0.0000
-0.8361 STUFF TO -0.0762
-0.3010 SUITCASE TO -0.0883
-0.5186 TABLE </s> -0.3010
-0.9957 TABLE AND -0.0800
-2.3075 TABLE FIND -0.2430
-1.5873 TABLE FOLLOW -0.1634
-2.9096 TABLE LOCATE -0.1487
-2.3075 TABLE LOOK 0.0000
-1.7956 TABLE MEET -0.1525
-1.4472 TABLE TO -0.0883
-2.1314 TABLE YOU -0.2766
-1.5315 TABLE, FIND -0.2430
-0.5538 TABLE, FOLLOW -0.2486
-1.6564 TABLE, LOCATE -0.1487
-1.8325 TABLE, LOOK 0.0000
-0.8783 TABLE, MEET -0.2683
-1.6564 TABLE, YOU -0.2837
-1.5315 TABLEWARE </s> -0.3010
-1.2304 TABLEWARE FROM 0.0000
-0.8325 TABLEWARE IN 0.0000
-0.8325 TABLEWARE ON -0.0141
-0.9874 TABLEWARE THERE 0.0000
-1.8325 TABLEWARE TO -0.0883
-2.5587 TAKE ALEX -0.2711
-2.2577 TAKE CHARLIE -0.2827
-2.5587 TAKE ELIZABETH -0.2617
-1.7136 TAKE FRANCIS -0.2358
-1.0402 TAKE HER -0.0998
-0.8685 TAKE HIM -0.0885
-2.2577 TAKE JENNIFER -0.2484
-2.2577 TAKE JOHN -0.2442
-2.5587 TAKE LINDA -0.2866
-2.2577 TAKE MARY -0.2553
-2.5587 TAKE MICHAEL -0.2783
-1.4795 TAKE MY 0.0000
-1.2800 TAKE OUT 0.0000
-2.0816 TAKE PATRICIA -0.2781
-2.5587 TAKE ROBERT -0.2742
-2.5587 TAKE ROBIN -0.2871
-0.9252 TAKE THE -0.2853
-2.5587 TAKE WILLIAM -0.2725
-0.3010 TAXI </s> -0.3010
-0.3010 TEAM S -0.2430
-0.7782 TEAM'S COUNTRY -0.2218
-0.4771 TEAM'S NAME -0.2490
-2.6920 TELL A -0.2811
-0.3476 TELL ME -0.0386
-1.9930 TELL SOMETHING 0.0000
-1.6920 TELL THE -0.2998
-2.2148 TELL WHAT -0.2571
-1.9138 TELL YOUR 0.0000
-2.2535 THE APPLE -0.0110
-2.8790 THE BACK -0.2852
-1.8510 THE BED 0.0000
-2.4019 THE BED, 0.0000
-1.7329 THE BEDROOM 0.0000
-3.8333 THE BEDROOM, 0.0000
-2.9302 THE BEDROOM. 0.0000
-2.7193 THE BIGGEST 0.0000
-1.6871 THE BOOKCASE 0.0000
-2.5111 THE BOOKCASE, 0.0000
-2.1705 THE BOWL -0.0258
-2.8790 THE BOWL, 0.0000
-3.1343 THE CAB 0.0000
-3.8333 THE CASCADE 0.0000
-3.1343 THE CEREAL 0.0000
-2.9302 THE CHILDREN 0.0000
-3.3562 THE CHOCOLATE 0.0000
-3.0551 THE CLEANING 0.0000
-2.2100 THE CLOTH -0.0764
-3.5322 THE CLOTH, 0.0000
-3.2312 THE COKE 0.0000
-3.2312 THE CONTAINERS -0.2361
-1.7541 THE CORRIDOR 0.0000
-3.5322 THE CORRIDOR, 0.0000
-2.8790 THE CORRIDOR. 0.0000
-1.8465 THE COUCH 0.0000
-2.4715 THE COUCH, 0.0000
-2.1343 THE COUNTER 0.0000
-3.8333 THE COUNTER, 0.0000
-3.5322 THE CRACKERS 0.0000
-2.9882 THE CUP 0.0000
-2.0624 THE CUPBOARD 0.0000
-3.5322 THE CUPBOARD, 0.0000
-2.9302 THE CUTLERY -0.2016
-2.8333 THE DAY -0.1249
-3.1343 THE DEBRIS 0.0000
-1.6458 THE DESK 0.0000
-2.6292 THE DESK, 0.0000
-1.3174 THE DINING 0.0000
-3.3562 THE DISH 0.0000
-1.8888 THE DISHWASHER 0.0000
-2.6028 THE DISHWASHER, 0.0000
-2.9302 THE DRINKS -0.2378
-3.0551 THE ELDERS 0.0000
-1.5708 THE END 0.0000
-1.7802 THE ENTRANCE 0.0000
-2.3709 THE ENTRANCE, 0.0000
-1.8888 THE EXIT 0.0000
-2.4183 THE EXIT, 0.0000
-3.3562 THE FOOD -0.2071
-3.5322 THE FORK 0.0000
-2.7541 THE FRONT 0.0000
-2.1520 THE FRUITS -0.1249
-3.3562 THE GARBAGE 0.0000
-2.4353 THE GENDER 0.0000
-3.5322 THE GRAPE 0.0000
-2.8790 THE GUESTS 0.0000
-2.8790 THE HEAVIEST -0.0621
-2.9882 THE JUNK 0.0000
-1.7295 THE KITCHEN 0.0000
-3.1343 THE KITCHEN, 0.0000
-3.5322 THE KITCHEN. 0.0000
-3.5322 THE KNIFE -0.1249
-2.6871 THE LARGEST -0.0483
-2.1998 THE LEFT -0.1360
-2.8333 THE LIGHTEST -0.1313
-2.9882 THE LITTER 0.0000
-1.6292 THE LIVING 0.0000
-2.7919 THE MAIN 0.0000
-2.8790 THE MEN -0.0969
-3.1343 THE MONTH 0.0000
-2.4531 THE NAME -0.0884
-3.1343 THE NOODLES 0.0000
-2.3148 THE OBJECT -0.1935
-2.4531 THE ORANGE -0.0170
-3.3562 THE ORANGE, 0.0000
-2.5545 THE PAPRIKA -0.0212
-3.5322 THE PAPRIKA, 0.0000
-2.8790 THE PEOPLE 0.0000
-1.6660 THE PERSON -0.0467
-2.4715 THE POSE 0.0000
-3.1343 THE POTATO 0.0000
-3.8333 THE PRINGLES 0.0000
-2.7919 THE REAR 0.0000
-2.2535 THE RIGHT -0.1035
-3.3562 THE SAUSAGES 0.0000
-3.8333 THE SAUSAGES, 0.0000
-3.1343 THE SCRUBBY 0.0000
-2.0551 THE SIDE 0.0000
-1.6264 THE SINK 0.0000
-2.4353 THE SINK, 0.0000
-2.6292 THE SMALLEST -0.0235
-3.1343 THE SNACKS -0.2430
-3.3562 THE SPONGE 0.0000
-3.3562 THE SPOON 0.0000
-2.0479 THE STORAGE 0.0000
-3.0551 THE TABLEWARE -0.2167
-3.1343 THE TAXI 0.0000
-2.5780 THE THINNEST -0.0000
-2.5780 THE THREE -0.1990
-2.8333 THE TIME 0.0000
-2.9302 THE TRASH 0.0000
-2.1898 THE TRAY -0.0738
-3.1343 THE TRAY, 0.0000
-2.9882 THE UBER 0.0000
-3.3562 THE WASTE 0.0000
-3.1343 THE WEEK 0.0000
-2.9882 THE WOMEN -0.1648
-0.4942 THEIR LEFT -0.2128
-0.7460 THEIR RIGHT -0.2382
-0.3010 THERE ARE -0.1851
-1.5798 THINNEST CLEANING 0.0000
-1.1027 THINNEST CONTAINERS -0.1919
-1.2788 THINNEST DRINKS -0.2681
-1.5798 THINNEST FOOD -0.2499
-0.6767 THINNEST OBJECT -0.1022
-1.2788 THINNEST SNACKS -0.2698
-1.2788 THINNEST TABLEWARE -0.2009
-1.9345 THREE BIGGEST -0.2688
-1.6335 THREE CLEANING 0.0000
-1.9345 THREE CONTAINERS -0.2361
-1.9345 THREE CUTLERY -0.2374
-1.2355 THREE DRINKS -0.2632
-1.3324 THREE FOOD -0.2071
-1.6335 THREE FRUITS -0.1931
-1.3324 THREE HEAVIEST -0.2083
-1.4574 THREE LARGEST -0.2009
-1.0894 THREE LIGHTEST -0.1845
-1.6335 THREE SMALLEST -0.2632
-1.3324 THREE SNACKS -0.2499
-1.1563 THREE TABLEWARE -0.2319
-1.9345 THREE THINNEST -0.2775
-0.3010 TIDY OP 0.0000
-0.6021 TIME </s> -0.3010
-0.6021 TIME TO -0.0883
-2.5405 TO ALEX -0.1663
-1.7044 TO ALL 0.0000
-2.9085 TO CHARLIE -0.1136
-2.6866 TO ELIZABETH -0.1473
-1.8293 TO EVERYONE 0.0000
-2.6866 TO FRANCIS -0.1591
-2.1552 TO HER -0.2914
-1.9542 TO HIS 0.0000
-2.7835 TO JAMES -0.1212
-2.9085 TO JENNIFER -0.1418
-2.7835 TO JOHN -0.1622
-1.7945 TO LEAVE 0.0000
-2.9085 TO LINDA -0.1226
-2.9085 TO MARY -0.1303
-1.7728 TO ME -0.2804
-2.6075 TO MICHAEL -0.1549
-2.4825 TO PATRICIA -0.1020
-2.9085 TO ROBERT -0.1271
-2.6075 TO ROBIN -0.1277
-2.7835 TO SKYLER -0.1272
-0.4120 TO THE -0.0870
-3.0846 TO WILLIAM -0.1405
-0.6021 TODAY </s> -0.3010
-0.6021 TODAY TO -0.0883
-0.3010 TOMORROW </s> -0.3010
-0.3010 TOP OF 0.0000
-0.3010 TRASH </s> -0.3010
-1.3345 TRAY </s> -0.3010
-1.0792 TRAY AND -0.2778
-0.9920 TRAY FROM 0.0000
-1.1883 TRAY IN 0.0000
-1.3345 TRAY ON -0.0141
-1.0334 TRAY THERE 0.0000
-1.1883 TRAY TO -0.0762
-0.3010 TRAY, AND -0.2860
-0.3010 TROLLEY TO -0.0883
-0.3010 UBER </s> -0.3010
-0.3010 UNDER THE -0.2909
-0.3010 UP THE -0.2294
-0.3010 VALISE TO -0.0883
-0.3010 WASTE </s> -0.3010
-1.5315 WAVING AND -0.2973
-0.3274 WAVING IN 0.0000
-0.3010 WAVING, AND -0.2891
-0.3010 WEEK </s> -0.3010
-1.0170 WHAT DAY -0.2218
-0.3938 WHAT S -0.0969
-0.3010 WHAT'S THE -0.2959
-0.3010 WHICH ARE -0.2643
-0.3010 WILL FIND -0.2268
-1.1383 WILLIAM AND -0.1903
-0.5099 WILLIAM AT 0.0000
-1.1963 WILLIAM FROM 0.0000
-1.2632 WILLIAM TO -0.0883
-0.3010 WILLIAM, AND -0.2664
-0.6021 WOMAN AND -0.2973
-0.6021 WOMAN IN 0.0000
-0.3010 WOMAN, AND -0.2945
-0.6368 WOMEN </s> -0.3010
-0.5699 WOMEN IN 0.0000
-2.4752 YOU ACCOMPANY -0.2765
-2.6513 YOU ANSWER 0.0000
-1.8731 YOU BRING -0.0452
-1.6970 YOU CAN 0.0000
-2.4752 YOU CLEAN 0.0000
-2.2533 YOU CONTACT -0.2249
-2.3502 YOU DELIVER -0.2188
-2.9523 YOU DISTRIBUTE -0.0792
-2.4752 YOU ESCORT -0.2909
-2.3502 YOU FACE -0.2304
-1.9523 YOU FIND -0.1629
-1.9523 YOU FOLLOW -0.2779
-2.6513 YOU GET 0.0000
-2.1742 YOU GIVE -0.0664
-1.8384 YOU GO 0.0000
-2.9523 YOU GRASP 0.0000
-2.2533 YOU GREET -0.2078
-2.6513 YOU GUIDE -0.2964
-2.4752 YOU LEAD -0.2916
-2.6513 YOU LOCATE -0.2279
-2.4752 YOU LOOK 0.0000
-1.7219 YOU MAY 0.0000
-1.3089 YOU MEET -0.0898
-1.9523 YOU NAVIGATE 0.0000
-2.9523 YOU NEATEN 0.0000
-2.9523 YOU PICK 0.0000
-0.6060 YOU PLEASE -0.0116
-2.9523 YOU PUT -0.2474
-2.9523 YOU SAY -0.2272
-1.9109 YOU TAKE -0.2017
-1.8384 YOU TELL -0.0372
-2.9523 YOU TIDY 0.0000
-1.8062 YOU WILL 0.0000
-0.4559 YOUR TEAM 0.0000
-0.8239 YOUR TEAM'S 0.0000
-0.4559 YOURSELF </s> -0.3010
-0.8239 YOURSELF TO -0.0883

\3-grams:
-1.0792 <s> ACCOMPANY ALEX
-1.5563 <s> ACCOMPANY CHARLIE
-1.0792 <s> ACCOMPANY FRANCIS
-1.5563 <s> ACCOMPANY JAMES
-1.5563 <s> ACCOMPANY MICHAEL
-1.5563 <s> ACCOMPANY PATRICIA
-1.2553 <s> ACCOMPANY ROBIN
-0.9542 <s> ACCOMPANY SKYLER
-1.2553 <s> ACCOMPANY WILLIAM
-0.3010 <s> ANSWER A
-0.5229 <s> ARRANGE DRINKS
-0.6990 <s> ARRANGE SNACKS
-2.2304 <s> BRING CLEANING
-1.9294 <s> BRING FOOD
-1.9294 <s> BRING FRUITS
-0.4746 <s> BRING ME
-1.7533 <s> BRING MY
-0.9294 <s> BRING THE
-0.4973 <s> CLEAN OUT
-0.7404 <s> CLEAN UP
-1.0000 <s> CONTACT CHARLIE
-1.7782 <s> CONTACT ELIZABETH
-1.4771 <s> CONTACT FRANCIS
-1.4771 <s> CONTACT JENNIFER
-1.7782 <s> CONTACT JOHN
-1.3010 <s> CONTACT MARY
-1.7782 <s> CONTACT MICHAEL
-1.4771 <s> CONTACT PATRICIA
-1.3010 <s> CONTACT ROBERT
-1.1761 <s> CONTACT ROBIN
-1.3010 <s> CONTACT SKYLER
-1.4771 <s> CONTACT WILLIAM
-0.3010 <s> COULD YOU
-1.6812 <s> DELIVER CLEANING
-1.6812 <s> DELIVER CUTLERY
-0.9031 <s> DELIVER DRINKS
-1.6812 <s> DELIVER FOOD
-1.2041 <s> DELIVER FRUITS
-0.9823 <s> DELIVER SNACKS
-1.6812 <s> DELIVER TABLEWARE
-0.9031 <s> DELIVER THE
-0.9031 <s> DISTRIBUTE DRINKS
-0.4260 <s> DISTRIBUTE SNACKS
-0.3010 <s> DUMP THE
-0.6812 <s> ESCORT ALEX
-1.0792 <s> ESCORT ELIZABETH
-1.0792 <s> ESCORT FRANCIS
-1.0792 <s> ESCORT JENNIFER
-1.3802 <s> ESCORT SKYLER
-1.0000 <s> FACE CHARLIE
-1.6990 <s> FACE ELIZABETH
-1.2218 <s> FACE FRANCIS
-1.2218 <s> FACE JAMES
-1.3979 <s> FACE JENNIFER
-1.6990 <s> FACE JOHN
-1.6990 <s> FACE LINDA
-1.3979 <s> FACE PATRICIA
-1.3979 <s> FACE ROBERT
-1.0969 <s> FACE ROBIN
-1.6990 <s> FACE SKYLER
-1.1950 <s> FIND A
-1.9731 <s> FIND ALEX
-1.4960 <s> FIND CHARLIE
-1.9731 <s> FIND ELIZABETH
-1.6721 <s> FIND FRANCIS
-1.9731 <s> FIND JOHN
-1.9731 <s> FIND LINDA
-1.6721 <s> FIND MARY
-1.6721 <s> FIND MICHAEL
-1.9731 <s> FIND PATRICIA
-1.2742 <s> FIND ROBIN
-1.4960 <s> FIND SKYLER
-0.8939 <s> FIND THE
-1.3711 <s> FIND THREE
-1.4960 <s> FIND WILLIAM
-1.1644 <s> FOLLOW ALEX
-1.8633 <s> FOLLOW CHARLIE
-1.6872 <s> FOLLOW ELIZABETH
-1.0852 <s> FOLLOW FRANCIS
-1.4654 <s> FOLLOW JAMES
-1.3862 <s> FOLLOW JENNIFER
-1.4654 <s> FOLLOW JOHN
-1.8633 <s> FOLLOW LINDA
-2.1644 <s> FOLLOW MARY
-1.3862 <s> FOLLOW MICHAEL
-1.8633 <s> FOLLOW PATRICIA
-1.4654 <s> FOLLOW ROBERT
-1.3862 <s> FOLLOW ROBIN
-1.4654 <s> FOLLOW SKYLER
-1.6872 <s> FOLLOW WILLIAM
-0.3010 <s> GET THE
-2.0719 <s> GIVE CLEANING
-2.0719 <s> GIVE DRINKS
-1.4698 <s> GIVE FRUITS
-0.3817 <s> GIVE ME
-1.7709 <s> GIVE SNACKS
-1.7709 <s> GIVE THE
-0.3010 <s> GO TO
-0.3010 <s> GRASP THE
-1.1461 <s> GREET ALEX
-1.7482 <s> GREET CHARLIE
-1.7482 <s> GREET ELIZABETH
-1.4472 <s> GREET FRANCIS
-1.7482 <s> GREET JAMES
-1.1461 <s> GREET JENNIFER
-1.4472 <s> GREET JOHN
-1.7482 <s> GREET LINDA
-1.4472 <s> GREET MARY
-1.7482 <s> GREET MICHAEL
-1.2711 <s> GREET PATRICIA
-1.4472 <s> GREET ROBERT
-1.4472 <s> GREET ROBIN
-1.7482 <s> GREET SKYLER
-1.7482 <s> GREET WILLIAM
-1.2304 <s> GUIDE ALEX
-1.5315 <s> GUIDE CHARLIE
-1.5315 <s> GUIDE FRANCIS
-1.5315 <s> GUIDE JAMES
-1.0544 <s> GUIDE JOHN
-1.2304 <s> GUIDE MICHAEL
-1.2304 <s> GUIDE ROBERT
-1.0544 <s> GUIDE SKYLER
-1.2304 <s> GUIDE WILLIAM
-1.5051 <s> LEAD CHARLIE
-1.2041 <s> LEAD ELIZABETH
-1.5051 <s> LEAD FRANCIS
-1.5051 <s> LEAD JAMES
-1.5051 <s> LEAD JENNIFER
-1.2041 <s> LEAD JOHN
-1.5051 <s> LEAD LINDA
-1.2041 <s> LEAD MARY
-1.5051 <s> LEAD PATRICIA
-1.2041 <s> LEAD ROBERT
-1.5051 <s> LEAD ROBIN
-1.5051 <s> LEAD SKYLER
-1.1206 <s> LOCATE A
-0.4771 <s> LOCATE THE
-1.0414 <s> LOCATE THREE
-0.3010 <s> LOOK FOR
-1.4698 <s> MEET ALEX
-1.2268 <s> MEET CHARLIE
-1.5600 <s> MEET ELIZABETH
-1.3122 <s> MEET FRANCIS
-1.4979 <s> MEET JAMES
-1.4698 <s> MEET JENNIFER
-1.6739 <s> MEET JOHN
-1.7709 <s> MEET LINDA
-1.5278 <s> MEET MARY
-1.7709 <s> MEET MICHAEL
-1.4435 <s> MEET PATRICIA
-1.5948 <s> MEET ROBERT
-1.4698 <s> MEET ROBIN
-1.2426 <s> MEET SKYLER
-1.5600 <s> MEET WILLIAM
-0.3010 <s> NAVIGATE TO
-0.3010 <s> NEATEN THE
-0.3010 <s> ORDER THE
-0.3010 <s> PICK UP
-0.3010 <s> PLACE THE
-2.3181 <s> PLEASE ACCOMPANY
-2.6191 <s> PLEASE ANSWER
-2.6191 <s> PLEASE ARRANGE
-1.4150 <s> PLEASE BRING
-2.6191 <s> PLEASE CLEAN
-1.7740 <s> PLEASE CONTACT
-1.7160 <s> PLEASE DELIVER
-2.1420 <s> PLEASE ESCORT
-1.9201 <s> PLEASE FACE
-1.9201 <s> PLEASE FIND
-1.6191 <s> PLEASE FOLLOW
-2.1420 <s> PLEASE GET
-1.4430 <s> PLEASE GIVE
-1.5051 <s> PLEASE GO
-2.6191 <s> PLEASE GRASP
-2.0170 <s> PLEASE GREET
-2.6191 <s> PLEASE GUIDE
-2.6191 <s> PLEASE LEAD
-1.7740 <s> PLEASE LOCATE
-1.8409 <s> PLEASE LOOK
-0.9659 <s> PLEASE MEET
-1.7160 <s> PLEASE NAVIGATE
-2.6191 <s> PLEASE ORDER
-2.6191 <s> PLEASE PLACE
-2.1420 <s> PLEASE PROVIDE
-2.1420 <s> PLEASE PUT
-2.3181 <s> PLEASE SAY
-1.7740 <s> PLEASE TAKE
-1.2041 <s> PLEASE TELL
-2.3181 <s> PLEASE TIDY
-0.3010 <s> PROVIDE DRINKS
-0.3010 <s> PUT THE
-0.3010 <s> ROBOT PLEASE
-0.6021 <s> SAY A
-0.9031 <s> SAY THE
-0.9031 <s> SAY WHAT
-0.4771 <s> SERVE DRINKS
-0.7782 <s> SERVE SNACKS
-2.0792 <s> TAKE CHARLIE
-2.0792 <s> TAKE ELIZABETH
-1.3010 <s> TAKE FRANCIS
-2.0792 <s> TAKE JENNIFER
-1.7782 <s> TAKE JOHN
-2.0792 <s> TAKE LINDA
-1.7782 <s> TAKE MARY
-1.3802 <s> TAKE MY
-1.1761 <s> TAKE OUT
-1.7782 <s> TAKE PATRICIA
-2.0792 <s> TAKE ROBERT
-2.0792 <s> TAKE ROBIN
-0.6168 <s> TAKE THE
-0.3196 <s> TELL ME
-2.1553 <s> TELL SOMETHING
-2.1553 <s> TELL THE
-2.1553 <s> TELL YOUR
-0.3010 <s> TIDY OP
-0.4771 A BOY AND
-0.7782 A BOY IN
-0.3882 A FEMALE PERSON
-1.0414 A FEMALE PERSON,
-0.3010 A GIRL AND
-0.3010 A GIRL, AND
-0.4260 A JOKE </s>
-0.9031 A JOKE TO
-0.9031 A MALE PERSON
-0.4260 A MALE PERSON,
-0.6021 A MAN AND
-0.6021 A MAN IN
-1.2672 A PERSON LYING
-1.2672 A PERSON POINTING
-0.8278 A PERSON RAISING
-1.0241 A PERSON SITTING
-1.8692 A PERSON SITTING,
-1.8692 A PERSON STANDING
-1.3921 A PERSON STANDING,
-1.2672 A PERSON WAVING
-1.5682 A PERSON WAVING,
-0.5942 A QUESTION </s>
-0.6100 A QUESTION TO
-0.6021 A WOMAN AND
-0.6021 A WOMAN IN
-0.3010 A WOMAN, AND
-0.4559 ABOUT YOURSELF </s>
-0.8239 ABOUT YOURSELF TO
-1.0000 ABOVE THE APPLE
-1.0000 ABOVE THE CASCADE
-1.0000 ABOVE THE CEREAL
-1.0000 ABOVE THE POTATO
-1.0000 ABOVE THE SPONGE
-0.3010 ACCOMPANY ALEX TO
-0.7782 ACCOMPANY CHARLIE FROM
-0.4771 ACCOMPANY CHARLIE TO
-0.3010 ACCOMPANY ELIZABETH FROM
-0.7782 ACCOMPANY FRANCIS FROM
-0.4771 ACCOMPANY FRANCIS TO
-1.0492 ACCOMPANY HER </s>
-0.8451 ACCOMPANY HER BACK
-0.5721 ACCOMPANY HER TO
-0.9379 ACCOMPANY HIM </s>
-0.6746 ACCOMPANY HIM BACK
-0.7618 ACCOMPANY HIM TO
-0.7782 ACCOMPANY JAMES FROM
-0.4771 ACCOMPANY JAMES TO
-0.3010 ACCOMPANY JENNIFER FROM
-0.3010 ACCOMPANY JOHN TO
-0.6021 ACCOMPANY MICHAEL FROM
-0.6021 ACCOMPANY MICHAEL TO
-0.3010 ACCOMPANY PATRICIA FROM
-0.3010 ACCOMPANY ROBERT TO
-0.4771 ACCOMPANY ROBIN FROM
-0.7782 ACCOMPANY ROBIN TO
-0.3802 ACCOMPANY SKYLER FROM
-1.0792 ACCOMPANY SKYLER TO
-0.9031 ACCOMPANY WILLIAM FROM
-0.4260 ACCOMPANY WILLIAM TO
-1.3424 ALEX AND ACCOMPANY
-1.0414 ALEX AND ESCORT
-1.0414 ALEX AND FOLLOW
-1.0414 ALEX AND GUIDE
-0.8653 ALEX AND LEAD
-1.3424 ALEX AND TAKE
-0.3010 ALEX AT THE
-0.3010 ALEX FROM THE
-0.3010 ALEX TO THE
-1.0792 ALEX, AND ACCOMPANY
-0.4771 ALEX, AND FOLLOW
-1.3802 ALEX, AND GUIDE
-1.3802 ALEX, AND LEAD
-1.0792 ALL THE CHILDREN
-1.2041 ALL THE ELDERS
-1.0280 ALL THE GUESTS
-1.0280 ALL THE MEN
-1.0280 ALL THE PEOPLE
-1.1372 ALL THE WOMEN
-0.5863 AND ACCOMPANY HER
-0.6185 AND ACCOMPANY HIM
-0.3010 AND ANSWER A
-0.5699 AND ASK HER
-0.6368 AND ASK HIM
-0.3010 AND BRING IT
-0.3010 AND DELIVER IT
-0.6232 AND ESCORT HER
-0.5819 AND ESCORT HIM
-0.5666 AND FOLLOW HER
-0.6406 AND FOLLOW HIM
-0.3010 AND GIVE IT
-0.3010 AND GO TO
-0.6471 AND GUIDE HER
-0.5612 AND GUIDE HIM
-1.0045 AND INTRODUCE HER
-0.9031 AND INTRODUCE HIM
-0.5590 AND INTRODUCE IT
-0.6425 AND LEAD HER
-0.5651 AND LEAD HIM
-0.3010 AND NAVIGATE TO
-0.3010 AND PLACE IT
-0.3010 AND PUT IT
-0.7597 AND SAY A
-1.0607 AND SAY SOMETHING
-0.8846 AND SAY THE
-1.6628 AND SAY WHAT
-1.0607 AND SAY YOUR
-0.6963 AND TAKE HER
-0.5246 AND TAKE HIM
-1.5051 AND TELL A
-1.0280 AND TELL SOMETHING
-0.6601 AND TELL THE
-1.2041 AND TELL WHAT
-1.0280 AND TELL YOUR
-0.3010 ANSWER A QUESTION
-0.3010 APPLE AND PUT
-0.3010 APPLE FROM THE
-0.3010 APPLE IN THE
-0.3010 APPLE ON THE
-0.3010 APPLE THERE ARE
-0.3010 APPLE TO ME
-0.3010 ARE BOYS </s>
-0.3010 ARE FEMALE </s>
-0.3010 ARE GIRLS </s>
-0.3010 ARE LYING DOWN
-0.3010 ARE MALE </s>
-0.3010 ARE MEN </s>
-0.3010 ARE ON THE
-0.3010 ARE SITTING </s>
-0.3010 ARE STANDING </s>
-0.3010 ARE THE THREE
-0.3010 ARE WOMEN </s>
-0.6021 ARM AND ANSWER
-0.6021 ARM AND TELL
-0.3010 ARM IN THE
-0.3010 ARM, AND ANSWER
-0.3010 ARRANGE DRINKS TO
-0.3010 ARRANGE SNACKS TO
-0.3010 ASK HER TO
-0.3010 ASK HIM TO
-2.2071 AT THE BACK
-1.4538 AT THE BED
-2.2583 AT THE BED,
-1.4132 AT THE BOOKCASE
-2.1614 AT THE BOOKCASE,
-1.3690 AT THE COUCH
-2.2583 AT THE COUCH,
-1.4055 AT THE DESK
-2.5593 AT THE DESK,
-1.3101 AT THE DINING
-1.4454 AT THE DISHWASHER
-2.3163 AT THE DISHWASHER,
-1.2806 AT THE END
-1.3225 AT THE ENTRANCE
-2.0152 AT THE ENTRANCE,
-1.5179 AT THE EXIT
-2.0152 AT THE EXIT,
-2.0822 AT THE FRONT
-2.5593 AT THE LEFT
-2.1200 AT THE MAIN
-2.1200 AT THE REAR
-2.5593 AT THE RIGHT
-1.3979 AT THE SINK
-2.0474 AT THE SINK,
-0.3010 BACK DOOR AND
-0.3010 BACK ENTRANCE AND
-0.3010 BAG TO THE
-0.3010 BAGGAGE TO THE
-1.4771 BED AND ACCOMPANY
-1.3010 BED AND ASK
-1.4771 BED AND ESCORT
-0.8751 BED AND FOLLOW
-1.3010 BED AND GUIDE
-1.1761 BED AND INTRODUCE
-1.1761 BED AND LEAD
-1.1761 BED AND TAKE
-0.5563 BED FOLLOW HER
-0.6532 BED FOLLOW HIM
-1.0000 BED MEET ALEX
-1.0000 BED MEET JENNIFER
-1.0000 BED MEET JOHN
-1.0000 BED MEET LINDA
-1.0000 BED MEET PATRICIA
-0.3010 BED TO THE
-0.4771 BED YOU CAN
-0.7782 BED YOU WILL
-0.4260 BED, FOLLOW HER,
-0.9031 BED, FOLLOW HIM,
-1.1461 BED, MEET ALEX,
-1.4472 BED, MEET CHARLIE,
-1.4472 BED, MEET ELIZABETH,
-1.4472 BED, MEET JAMES,
-1.4472 BED, MEET JENNIFER,
-1.4472 BED, MEET LINDA,
-1.4472 BED, MEET MICHAEL,
-1.4472 BED, MEET PATRICIA,
-1.4472 BED, MEET ROBERT,
-0.9700 BED, MEET SKYLER,
-1.4472 BED, MEET WILLIAM,
-0.5229 BED, YOU MAY
-0.6990 BED, YOU WILL
-0.7782 BEDROOM AND ANSWER
-0.4771 BEDROOM AND SAY
-1.3424 BEDROOM ARE BOYS
-1.3424 BEDROOM ARE FEMALE
-1.3424 BEDROOM ARE GIRLS
-1.3424 BEDROOM ARE MALE
-1.3424 BEDROOM ARE MEN
-0.6435 BEDROOM ARE STANDING
-1.3424 BEDROOM ARE WOMEN
-0.3010 BEDROOM FIND A
-0.3010 BEDROOM LOCATE A
-0.3010 BEDROOM LOOK FOR
-0.3010 BEDROOM TO THE
-0.3010 BEDROOM, FIND A
-1.1461 BEHIND THE CHOCOLATE
-1.1461 BEHIND THE FORK
-1.1461 BEHIND THE GRAPE
-0.8451 BEHIND THE ORANGE
-1.1461 BEHIND THE SCRUBBY
-1.1461 BEHIND THE SPOON
-0.3010 BIGGEST CLEANING STUFF
-0.6021 BIGGEST CUTLERY FROM
-0.6021 BIGGEST CUTLERY ON
-0.3010 BIGGEST FOOD ON
-0.3010 BIGGEST FRUITS FROM
-0.6021 BIGGEST OBJECT FROM
-0.6021 BIGGEST OBJECT ON
-0.3010 BIGGEST SNACKS FROM
-0.6021 BIGGEST TABLEWARE FROM
-0.6021 BIGGEST TABLEWARE ON
-1.0645 BOOKCASE AND ASK
-1.7634 BOOKCASE AND ESCORT
-0.8603 BOOKCASE AND FOLLOW
-1.7634 BOOKCASE AND GIVE
-1.7634 BOOKCASE AND GUIDE
-1.1614 BOOKCASE AND INTRODUCE
-1.2863 BOOKCASE AND LEAD
-1.1614 BOOKCASE AND PLACE
-1.4624 BOOKCASE AND TAKE
-0.6990 BOOKCASE FOLLOW HER
-0.5229 BOOKCASE FOLLOW HIM
-0.3010 BOOKCASE LOCATE THE
-0.3010 BOOKCASE LOOK FOR
-1.3424 BOOKCASE MEET CHARLIE
-1.0414 BOOKCASE MEET ELIZABETH
-1.3424 BOOKCASE MEET JOHN
-1.3424 BOOKCASE MEET MARY
-0.8653 BOOKCASE MEET SKYLER
-0.8653 BOOKCASE MEET WILLIAM
-0.3010 BOOKCASE TO THE
-0.6021 BOOKCASE YOU CAN
-0.6021 BOOKCASE YOU WILL
-0.3010 BOOKCASE, FIND THE
-0.8239 BOOKCASE, FOLLOW HER,
-0.4559 BOOKCASE, FOLLOW HIM,
-0.3010 BOOKCASE, LOCATE THE
-0.3010 BOOKCASE, LOOK FOR
-1.0792 BOOKCASE, MEET ALEX,
-1.0792 BOOKCASE, MEET CHARLIE,
-1.0792 BOOKCASE, MEET ELIZABETH,
-1.0792 BOOKCASE, MEET JENNIFER,
-1.0792 BOOKCASE, MEET PATRICIA,
-1.0792 BOOKCASE, MEET SKYLER,
-0.3010 BOOKCASE, YOU WILL
-1.0792 BOWL AND DELIVER
-0.9031 BOWL AND PLACE
-0.5351 BOWL AND PUT
-0.3010 BOWL FROM THE
-0.3010 BOWL IN THE
-0.3010 BOWL ON THE
-0.3010 BOWL THERE ARE
-0.8451 BOWL TO ME
-0.4472 BOWL TO THE
-1.2553 BOWL, AND BRING
-1.2553 BOWL, AND DELIVER
-1.2553 BOWL, AND PLACE
-0.4771 BOWL, AND PUT
-0.6021 BOY AND ANSWER
-0.6021 BOY AND SAY
-0.3010 BOY IN THE
-0.3010 BRING CLEANING STUFF
-0.3010 BRING DRINKS TO
-0.3010 BRING FOOD TO
-0.3010 BRING FRUITS TO
-0.3010 BRING IT TO
-0.3010 BRING ME THE
-1.0000 BRING MY BAG
-0.6990 BRING MY TROLLEY
-0.6990 BRING MY VALISE
-0.9744 BRING THE APPLE
-1.5185 BRING THE BOWL
-1.8195 BRING THE CEREAL
-1.8195 BRING THE CLOTH
-1.8195 BRING THE COKE
-1.8195 BRING THE CRACKERS
-1.3424 BRING THE CUP
-1.8195 BRING THE DISH
-1.8195 BRING THE GRAPE
-1.5185 BRING THE NOODLES
-1.2175 BRING THE ORANGE
-1.5185 BRING THE PAPRIKA
-1.8195 BRING THE SAUSAGES
-1.3424 BRING THE SCRUBBY
-1.8195 BRING THE SPOON
-1.5185 BRING THE TRAY
-0.6021 CAN FIND HER
-0.6021 CAN FIND HIM
-0.3010 CASCADE POD FROM
-0.3010 CEREAL FROM THE
-0.3010 CEREAL ON THE
-0.3010 CEREAL TO THE
-1.0792 CHARLIE AND ACCOMPANY
-1.0792 CHARLIE AND FOLLOW
-1.0792 CHARLIE AND GUIDE
-0.7782 CHARLIE AND LEAD
-1.0792 CHARLIE AND TAKE
-0.3010 CHARLIE AT THE
-0.3010 CHARLIE FROM THE
-0.3010 CHARLIE TO THE
-0.9031 CHARLIE, AND ACCOMPANY
-0.7270 CHARLIE, AND FOLLOW
-1.2041 CHARLIE, AND LEAD
-0.9031 CHARLIE, AND TAKE
-0.3010 CHILDREN IN THE
-0.3010 CHIPS FROM THE
-0.3010 CHIPS TO THE
-0.4771 CHOCOLATE DRINK </s>
-0.7782 CHOCOLATE DRINK FROM
-0.3010 CLEAN OUT THE
-0.3010 CLEAN UP THE
-1.0792 CLEANING STUFF </s>
-1.2041 CLEANING STUFF FROM
-1.0792 CLEANING STUFF IN
-1.2041 CLEANING STUFF ON
-1.2041 CLEANING STUFF THERE
-0.8361 CLEANING STUFF TO
-0.7404 CLOTH AND DELIVER
-1.0414 CLOTH AND PLACE
-0.6435 CLOTH AND PUT
-0.3010 CLOTH FROM THE
-0.3010 CLOTH IN THE
-0.3010 CLOTH ON THE
-0.3010 CLOTH THERE ARE
-0.4771 CLOTH TO ME
-0.7782 CLOTH TO THE
-0.6021 CLOTH, AND PLACE
-0.6021 CLOTH, AND PUT
-0.3010 COKE ON THE
-0.3010 COKE TO THE
-0.3010 CONTACT CHARLIE AT
-0.3010 CONTACT ELIZABETH AT
-0.3010 CONTACT FRANCIS AT
-0.3010 CONTACT JAMES AT
-0.3010 CONTACT JENNIFER AT
-0.3010 CONTACT JOHN AT
-0.3010 CONTACT LINDA AT
-0.3010 CONTACT MARY AT
-0.3010 CONTACT MICHAEL AT
-0.3010 CONTACT PATRICIA AT
-0.3010 CONTACT ROBERT AT
-0.3010 CONTACT ROBIN AT
-0.3010 CONTACT SKYLER AT
-0.3010 CONTACT WILLIAM AT
-0.3010 CONTAINERS FROM THE
-0.3010 CONTAINERS IN THE
-0.3010 CONTAINERS ON THE
-0.3010 CONTAINERS THERE ARE
-0.6690 CORRIDOR AND ANSWER
-0.8451 CORRIDOR AND SAY
-0.8451 CORRIDOR AND TELL
-1.2041 CORRIDOR ARE BOYS
-1.2041 CORRIDOR ARE FEMALE
-1.2041 CORRIDOR ARE LYING
-1.2041 CORRIDOR ARE SITTING
-0.7270 CORRIDOR ARE STANDING
-1.2041 CORRIDOR ARE WOMEN
-0.3010 CORRIDOR LOCATE A
-0.3010 CORRIDOR LOOK FOR
-0.3010 CORRIDOR TO THE
-0.3010 CORRIDOR, FIND A
-0.3010 CORRIDOR, LOCATE A
-1.8062 COUCH AND ACCOMPANY
-1.2041 COUCH AND ASK
-1.3291 COUCH AND ESCORT
-0.8519 COUCH AND FOLLOW
-1.3291 COUCH AND GUIDE
-1.0280 COUCH AND INTRODUCE
-1.8062 COUCH AND LEAD
-1.1072 COUCH AND TAKE
-0.4150 COUCH FOLLOW HER
-0.9379 COUCH FOLLOW HIM
-1.1461 COUCH MEET ALEX
-1.1461 COUCH MEET FRANCIS
-1.1461 COUCH MEET JAMES
-1.1461 COUCH MEET JOHN
-1.1461 COUCH MEET MICHAEL
-1.1461 COUCH MEET PATRICIA
-1.1461 COUCH MEET ROBERT
-0.3010 COUCH TO THE
-0.4771 COUCH YOU CAN
-0.7782 COUCH YOU MAY
-0.7270 COUCH, FOLLOW HER,
-0.5051 COUCH, FOLLOW HIM,
-1.0414 COUCH, MEET ALEX,
-0.8653 COUCH, MEET FRANCIS,
-1.0414 COUCH, MEET ROBERT,
-1.0414 COUCH, MEET ROBIN,
-1.3424 COUCH, MEET SKYLER,
-1.3424 COUCH, MEET WILLIAM,
-0.9031 COUCH, YOU CAN
-0.6021 COUCH, YOU MAY
-0.9031 COUCH, YOU WILL
-2.4249 COULD YOU ACCOMPANY
-2.6010 COULD YOU ANSWER
-1.8228 COULD YOU BRING
-2.4249 COULD YOU CLEAN
-2.2030 COULD YOU CONTACT
-2.2999 COULD YOU DELIVER
-2.9020 COULD YOU DISTRIBUTE
-2.4249 COULD YOU ESCORT
-2.2999 COULD YOU FACE
-1.9020 COULD YOU FIND
-1.9020 COULD YOU FOLLOW
-2.6010 COULD YOU GET
-2.1239 COULD YOU GIVE
-1.7881 COULD YOU GO
-2.9020 COULD YOU GRASP
-2.2030 COULD YOU GREET
-2.6010 COULD YOU GUIDE
-2.4249 COULD YOU LEAD
-2.6010 COULD YOU LOCATE
-2.4249 COULD YOU LOOK
-1.2586 COULD YOU MEET
-1.9020 COULD YOU NAVIGATE
-2.9020 COULD YOU NEATEN
-2.9020 COULD YOU PICK
-0.5556 COULD YOU PLEASE
-2.9020 COULD YOU PUT
-2.9020 COULD YOU SAY
-1.8606 COULD YOU TAKE
-1.7881 COULD YOU TELL
-2.9020 COULD YOU TIDY
-0.6021 COUNTER AND PLACE
-0.6021 COUNTER AND PUT
-0.3010 COUNTER FIND THE
-0.3010 COUNTER, FIND THE
-0.3010 COUNTRY TO THE
-0.3010 CRACKERS TO ME
-0.3010 CUP AND PLACE
-1.0792 CUP TO ME
-0.3802 CUP TO THE
-0.8451 CUPBOARD AND DELIVER
-0.6690 CUPBOARD AND PLACE
-0.8451 CUPBOARD AND PUT
-0.3010 CUPBOARD FIND THE
-0.3010 CUPBOARD LOOK FOR
-0.3010 CUPBOARD, LOOK FOR
-0.3010 CUTLERY FROM THE
-0.3010 CUTLERY IN THE
-0.3010 CUTLERY ON THE
-0.3010 CUTLERY THERE ARE
-0.6021 CUTLERY TO ME
-0.6021 CUTLERY TO THE
-0.3979 DAY IS TODAY
-1.0000 DAY IS TOMORROW
-0.3010 DAY OF THE
-0.3010 DELIVER CLEANING STUFF
-0.3010 DELIVER CUTLERY TO
-0.3010 DELIVER DRINKS TO
-0.3010 DELIVER FOOD TO
-0.3010 DELIVER FRUITS TO
-0.3010 DELIVER IT TO
-0.3010 DELIVER SNACKS TO
-0.3010 DELIVER TABLEWARE TO
-0.7782 DELIVER THE BOWL
-1.3802 DELIVER THE CEREAL
-1.3802 DELIVER THE CLOTH
-1.3802 DELIVER THE CUP
-1.3802 DELIVER THE ORANGE
-1.3802 DELIVER THE PAPRIKA
-0.9031 DELIVER THE TRAY
-1.3680 DESK AND ACCOMPANY
-1.3680 DESK AND ASK
-1.8451 DESK AND DELIVER
-1.5441 DESK AND ESCORT
-0.9420 DESK AND FOLLOW
-1.5441 DESK AND GUIDE
-0.8909 DESK AND INTRODUCE
-1.5441 DESK AND LEAD
-1.3680 DESK AND PLACE
-1.5441 DESK AND TAKE
-0.3010 DESK FIND THE
-0.5699 DESK FOLLOW HER
-0.6368 DESK FOLLOW HIM
-1.0000 DESK MEET JOHN
-1.3010 DESK MEET MARY
-1.3010 DESK MEET MICHAEL
-1.0000 DESK MEET ROBERT
-1.3010 DESK MEET ROBIN
-1.3010 DESK MEET SKYLER
-1.0000 DESK MEET WILLIAM
-0.3010 DESK TO THE
-0.7782 DESK YOU CAN
-0.7782 DESK YOU MAY
-0.7782 DESK YOU WILL
-0.4260 DESK, FOLLOW HER,
-0.9031 DESK, FOLLOW HIM,
-0.3010 DESK, LOCATE THE
-0.3010 DESK, LOOK FOR
-0.9031 DESK, MEET ALEX,
-1.2041 DESK, MEET CHARLIE,
-0.7270 DESK, MEET FRANCIS,
-1.2041 DESK, MEET ROBERT,
-1.2041 DESK, MEET WILLIAM,
-0.3010 DESK, YOU CAN
-0.3950 DINING ROOM </s>
-1.5711 DINING ROOM AND
-1.5711 DINING ROOM ARE
-2.1732 DINING ROOM FIND
-1.4328 DINING ROOM TO
-0.9031 DINING ROOM, FIND
-0.6021 DINING ROOM, LOCATE
-0.9031 DINING ROOM, LOOK
-0.3010 DINING ROOM. </s>
-0.5841 DINING TABLE </s>
-0.8851 DINING TABLE AND
-1.6752 DINING TABLE FOLLOW
-2.4533 DINING TABLE LOCATE
-2.4533 DINING TABLE LOOK
-1.6752 DINING TABLE MEET
-1.2492 DINING TABLE TO
-2.4533 DINING TABLE YOU
-0.5177 DINING TABLE, FOLLOW
-1.7482 DINING TABLE, LOCATE
-0.7939 DINING TABLE, MEET
-1.7482 DINING TABLE, YOU
-0.3010 DISH FROM THE
-0.3010 DISH IN THE
-0.3010 DISH TO THE
-1.6435 DISHWASHER AND ACCOMPANY
-1.3424 DISHWASHER AND ASK
-1.3424 DISHWASHER AND ESCORT
-0.6892 DISHWASHER AND FOLLOW
-1.6435 DISHWASHER AND GUIDE
-1.6435 DISHWASHER AND INTRODUCE
-1.0414 DISHWASHER AND LEAD
-1.3424 DISHWASHER AND TAKE
-0.6864 DISHWASHER FOLLOW HER
-0.5315 DISHWASHER FOLLOW HIM
-1.2553 DISHWASHER MEET FRANCIS
-1.2553 DISHWASHER MEET JAMES
-0.7782 DISHWASHER MEET MICHAEL
-0.9542 DISHWASHER MEET ROBIN
-0.9542 DISHWASHER MEET SKYLER
-0.3010 DISHWASHER TO THE
-0.7782 DISHWASHER YOU CAN
-0.7782 DISHWASHER YOU MAY
-0.7782 DISHWASHER YOU WILL
-0.8451 DISHWASHER, FOLLOW HER,
-0.4472 DISHWASHER, FOLLOW HIM,
-1.2041 DISHWASHER, MEET CHARLIE,
-1.2041 DISHWASHER, MEET FRANCIS,
-0.9031 DISHWASHER, MEET LINDA,
-1.2041 DISHWASHER, MEET PATRICIA,
-1.2041 DISHWASHER, MEET ROBERT,
-0.9031 DISHWASHER, MEET SKYLER,
-0.6021 DISHWASHER, YOU CAN
-0.6021 DISHWASHER, YOU MAY
-0.3010 DISTRIBUTE DRINKS TO
-0.3010 DISTRIBUTE SNACKS TO
-0.3010 DOOR AND INTRODUCE
-0.6021 DOWN AND SAY
-0.6021 DOWN AND TELL
-0.3010 DOWN IN THE
-0.3010 DRINK FROM THE
-0.3010 DRINKS FROM THE
-0.3010 DRINKS IN THE
-0.3010 DRINKS ON THE
-0.3010 DRINKS THERE ARE
-0.6576 DRINKS TO ALL
-0.6576 DRINKS TO EVERYONE
-1.2218 DRINKS TO ME
-1.4472 DUMP THE DEBRIS
-1.4472 DUMP THE GARBAGE
-0.7482 DUMP THE JUNK
-1.4472 DUMP THE LITTER
-0.7482 DUMP THE TRASH
-1.4472 DUMP THE WASTE
-0.3010 ELDERS IN THE
-0.7270 ELIZABETH AND ESCORT
-0.7270 ELIZABETH AND FOLLOW
-1.2041 ELIZABETH AND GUIDE
-1.2041 ELIZABETH AND TAKE
-0.3010 ELIZABETH AT THE
-0.3010 ELIZABETH FROM THE
-0.3010 ELIZABETH TO THE
-0.6021 ELIZABETH, AND ESCORT
-0.6021 ELIZABETH, AND LEAD
-0.6393 END TABLE </s>
-0.8743 END TABLE AND
-1.2893 END TABLE FOLLOW
-1.6203 END TABLE MEET
-1.3514 END TABLE TO
-1.7664 END TABLE YOU
-1.5682 END TABLE, FIND
-0.5470 END TABLE, FOLLOW
-1.8692 END TABLE, LOCATE
-1.5682 END TABLE, LOOK
-0.9150 END TABLE, MEET
-1.5682 END TABLE, YOU
-2.0086 ENTRANCE AND ACCOMPANY
-1.4065 ENTRANCE AND ASK
-2.0086 ENTRANCE AND ESCORT
-1.0086 ENTRANCE AND FOLLOW
-1.5315 ENTRANCE AND GUIDE
-0.5936 ENTRANCE AND INTRODUCE
-1.7076 ENTRANCE AND LEAD
-1.4065 ENTRANCE AND TAKE
-0.8062 ENTRANCE FOLLOW HER
-0.4638 ENTRANCE FOLLOW HIM
-0.9031 ENTRANCE MEET CHARLIE
-1.2041 ENTRANCE MEET ELIZABETH
-0.9031 ENTRANCE MEET FRANCIS
-1.2041 ENTRANCE MEET JENNIFER
-1.2041 ENTRANCE MEET MICHAEL
-1.2041 ENTRANCE MEET ROBIN
-0.3010 ENTRANCE TO THE
-0.6021 ENTRANCE YOU CAN
-0.6021 ENTRANCE YOU MAY
-0.7482 ENTRANCE, FOLLOW HER,
-0.4929 ENTRANCE, FOLLOW HIM,
-1.3424 ENTRANCE, MEET ALEX,
-1.3424 ENTRANCE, MEET CHARLIE,
-0.7404 ENTRANCE, MEET FRANCIS,
-1.3424 ENTRANCE, MEET JAMES,
-1.3424 ENTRANCE, MEET ROBERT,
-0.8653 ENTRANCE, MEET ROBIN,
-0.9031 ENTRANCE, YOU CAN
-0.9031 ENTRANCE, YOU MAY
-0.6021 ENTRANCE, YOU WILL
-0.5441 ESCORT ALEX FROM
-0.6690 ESCORT ALEX TO
-0.3010 ESCORT CHARLIE TO
-0.6021 ESCORT ELIZABETH FROM
-0.6021 ESCORT ELIZABETH TO
-0.6021 ESCORT FRANCIS FROM
-0.6021 ESCORT FRANCIS TO
-0.9331 ESCORT HER </s>
-0.8239 ESCORT HER BACK
-0.6320 ESCORT HER TO
-1.0414 ESCORT HIM </s>
-0.9165 ESCORT HIM BACK
-0.5408 ESCORT HIM TO
-0.6021 ESCORT JAMES FROM
-0.6021 ESCORT JAMES TO
-0.3010 ESCORT JENNIFER FROM
-0.3010 ESCORT LINDA TO
-0.3010 ESCORT MARY TO
-0.3010 ESCORT PATRICIA TO
-0.3010 ESCORT ROBIN TO
-0.3010 ESCORT SKYLER TO
-0.3010 ESCORT WILLIAM TO
-0.3010 EVERYONE IN THE
-1.3802 EXIT AND ACCOMPANY
-1.3802 EXIT AND ESCORT
-0.8361 EXIT AND FOLLOW
-1.0792 EXIT AND GUIDE
-0.9823 EXIT AND INTRODUCE
-1.0792 EXIT AND TAKE
-0.4771 EXIT FOLLOW HER
-0.7782 EXIT FOLLOW HIM
-1.0792 EXIT MEET ALEX
-1.0792 EXIT MEET FRANCIS
-0.7782 EXIT MEET JENNIFER
-1.0792 EXIT MEET LINDA
-1.0792 EXIT MEET SKYLER
-0.3010 EXIT TO THE
-0.3010 EXIT YOU CAN
-0.6690 EXIT, FOLLOW HER,
-0.5441 EXIT, FOLLOW HIM,
-1.3010 EXIT, MEET ALEX,
-1.0000 EXIT, MEET CHARLIE,
-1.3010 EXIT, MEET FRANCIS,
-1.3010 EXIT, MEET JENNIFER,
-1.3010 EXIT, MEET PATRICIA,
-1.3010 EXIT, MEET ROBIN,
-0.8239 EXIT, MEET SKYLER,
-0.3010 EXIT, YOU CAN
-0.3010 FACE ALEX AT
-0.3010 FACE CHARLIE AT
-0.3010 FACE ELIZABETH AT
-0.3010 FACE FRANCIS AT
-0.3010 FACE JAMES AT
-0.3010 FACE JENNIFER AT
-0.3010 FACE JOHN AT
-0.3010 FACE LINDA AT
-0.3010 FACE MICHAEL AT
-0.3010 FACE PATRICIA AT
-0.3010 FACE ROBERT AT
-0.3010 FACE ROBIN AT
-0.3010 FACE SKYLER AT
-0.7782 FEMALE PERSON AND
-0.4771 FEMALE PERSON IN
-0.3010 FEMALE PERSON, AND
-1.0414 FIND A FEMALE
-1.6435 FIND A GIRL
-1.6435 FIND A MALE
-1.3424 FIND A MAN
-0.4973 FIND A PERSON
-0.3010 FIND ALEX AT
-0.3010 FIND CHARLIE AT
-0.3010 FIND ELIZABETH AT
-0.3010 FIND FRANCIS AT
-0.3010 FIND HER AT
-0.3010 FIND HIM AT
-0.3010 FIND JENNIFER AT
-0.3010 FIND JOHN AT
-0.3010 FIND LINDA AT
-0.3010 FIND MARY AT
-0.3010 FIND MICHAEL AT
-0.3010 FIND PATRICIA AT
-0.3010 FIND ROBERT AT
-0.3010 FIND ROBIN AT
-0.3010 FIND SKYLER AT
-1.2900 FIND THE BOWL
-1.2900 FIND THE BOWL,
-1.8921 FIND THE CLEANING
-1.2900 FIND THE CLOTH
-1.8921 FIND THE CLOTH,
-1.8921 FIND THE CONTAINERS
-1.8921 FIND THE CUP
-1.4150 FIND THE CUTLERY
-1.8921 FIND THE DRINKS
-0.8921 FIND THE FRUITS
-1.8921 FIND THE ORANGE
-1.8921 FIND THE ORANGE,
-1.8921 FIND THE SNACKS
-1.8921 FIND THE TABLEWARE
-1.4150 FIND THE TRAY
-1.5911 FIND THE TRAY,
-1.1461 FIND THREE CLEANING
-1.1461 FIND THREE DRINKS
-0.8451 FIND THREE FOOD
-0.6690 FIND THREE TABLEWARE
-0.3010 FIND WILLIAM AT
-0.6690 FOLLOW ALEX </s>
-0.5441 FOLLOW ALEX FROM
-0.5441 FOLLOW CHARLIE </s>
-0.6690 FOLLOW CHARLIE FROM
-1.0000 FOLLOW ELIZABETH </s>
-0.3979 FOLLOW ELIZABETH FROM
-0.8325 FOLLOW FRANCIS </s>
-0.4523 FOLLOW FRANCIS FROM
-0.7112 FOLLOW HER </s>
-0.6741 FOLLOW HER AND
-1.0280 FOLLOW HER TO
-0.3010 FOLLOW HER, AND
-0.7173 FOLLOW HIM </s>
-0.6255 FOLLOW HIM AND
-1.1461 FOLLOW HIM TO
-0.3010 FOLLOW HIM, AND
-0.8451 FOLLOW JAMES </s>
-0.4472 FOLLOW JAMES FROM
-0.7270 FOLLOW JENNIFER </s>
-0.5051 FOLLOW JENNIFER FROM
-0.6690 FOLLOW JOHN </s>
-0.5441 FOLLOW JOHN FROM
-1.0000 FOLLOW LINDA </s>
-0.3979 FOLLOW LINDA FROM
-0.5229 FOLLOW MARY </s>
-0.6990 FOLLOW MARY FROM
-0.4260 FOLLOW MICHAEL </s>
-0.9031 FOLLOW MICHAEL FROM
-0.3010 FOLLOW PATRICIA FROM
-0.7782 FOLLOW ROBERT </s>
-0.4771 FOLLOW ROBERT FROM
-0.6532 FOLLOW ROBIN </s>
-0.5563 FOLLOW ROBIN FROM
-1.0000 FOLLOW SKYLER </s>
-0.3979 FOLLOW SKYLER FROM
-0.3010 FOLLOW WILLIAM FROM
-0.3010 FOOD FROM THE
-0.3010 FOOD IN THE
-0.3010 FOOD ON THE
-0.3010 FOOD THERE ARE
-1.0000 FOOD TO ME
-0.3979 FOOD TO THE
-1.3617 FOR A BOY
-0.8846 FOR A FEMALE
-1.6628 FOR A GIRL
-1.6628 FOR A MALE
-1.3617 FOR A MAN
-0.6628 FOR A PERSON
-1.6628 FOR A WOMAN
-1.9031 FOR THE APPLE
-1.2041 FOR THE BOWL
-1.4260 FOR THE BOWL,
-1.4260 FOR THE CLOTH
-1.9031 FOR THE CLOTH,
-1.9031 FOR THE CONTAINERS
-1.6021 FOR THE CUTLERY
-1.9031 FOR THE FOOD
-0.8617 FOR THE FRUITS
-1.9031 FOR THE ORANGE
-1.6021 FOR THE ORANGE,
-1.9031 FOR THE PAPRIKA,
-1.9031 FOR THE SAUSAGES
-1.6021 FOR THE SNACKS
-1.9031 FOR THE SPOON
-1.4260 FOR THE TRAY
-1.9031 FOR THE TRAY,
-1.3424 FOR THREE CLEANING
-1.3424 FOR THREE CONTAINERS
-1.3424 FOR THREE CUTLERY
-1.0414 FOR THREE DRINKS
-1.3424 FOR THREE FOOD
-1.3424 FOR THREE FRUITS
-1.0414 FOR THREE SNACKS
-1.0414 FOR THREE TABLEWARE
-0.3010 FORK FROM THE
-1.0792 FRANCIS AND ACCOMPANY
-1.0792 FRANCIS AND ESCORT
-1.0792 FRANCIS AND FOLLOW
-1.3802 FRANCIS AND GUIDE
-1.0792 FRANCIS AND LEAD
-0.9031 FRANCIS AND TAKE
-0.3010 FRANCIS AT THE
-0.3010 FRANCIS FROM THE
-0.3010 FRANCIS TO THE
-1.5051 FRANCIS, AND ACCOMPANY
-0.9031 FRANCIS, AND ESCORT
-0.7270 FRANCIS, AND FOLLOW
-1.0280 FRANCIS, AND GUIDE
-1.5051 FRANCIS, AND LEAD
-1.5051 FRANCIS, AND TAKE
-1.7688 FROM THE BED
-2.2082 FROM THE BEDROOM
-1.4300 FROM THE BOOKCASE
-2.3331 FROM THE CORRIDOR
-1.7688 FROM THE COUCH
-1.6341 FROM THE COUNTER
-1.4678 FROM THE CUPBOARD
-1.3953 FROM THE DESK
-1.2192 FROM THE DINING
-1.7688 FROM THE DISHWASHER
-1.2082 FROM THE END
-1.6963 FROM THE ENTRANCE
-1.6641 FROM THE EXIT
-1.9651 FROM THE KITCHEN
-2.5092 FROM THE LIVING
-1.5315 FROM THE SIDE
-1.2788 FROM THE SINK
-1.3631 FROM THE STORAGE
-0.3010 FRONT DOOR AND
-0.3010 FRONT ENTRANCE AND
-0.3010 FRUITS FROM THE
-0.3010 FRUITS IN THE
-0.3010 FRUITS ON THE
-0.3010 FRUITS THERE ARE
-0.6021 FRUITS TO ME
-0.6021 FRUITS TO THE
-0.3010 GENDER OF THE
-0.7533 GET THE BOWL
-0.6864 GET THE CLOTH
-1.5315 GET THE DISH
-1.5315 GET THE PAPRIKA
-1.2304 GET THE TRAY
-0.6021 GIRL AND SAY
-0.6021 GIRL AND TELL
-0.3010 GIRL, AND TELL
-0.3010 GIVE CLEANING STUFF
-0.3010 GIVE CUTLERY TO
-0.3010 GIVE DRINKS TO
-0.3010 GIVE FRUITS TO
-0.3010 GIVE IT TO
-0.3010 GIVE ME THE
-0.3010 GIVE SNACKS TO
-1.0000 GIVE THE APPLE
-1.0000 GIVE THE BOWL
-1.0000 GIVE THE PAPRIKA
-0.6990 GIVE THE TRAY
-0.3010 GO TO THE
-0.6021 GRAPE JUICE FROM
-0.6021 GRAPE JUICE TO
-1.4472 GRASP THE APPLE
-0.8451 GRASP THE BOWL
-0.8451 GRASP THE CLOTH
-0.7482 GRASP THE TRAY
-0.3010 GREET ALEX AT
-0.3010 GREET CHARLIE AT
-0.3010 GREET ELIZABETH AT
-0.3010 GREET FRANCIS AT
-0.3010 GREET JAMES AT
-0.3010 GREET JENNIFER AT
-0.3010 GREET JOHN AT
-0.3010 GREET LINDA AT
-0.3010 GREET MARY AT
-0.3010 GREET MICHAEL AT
-0.3010 GREET PATRICIA AT
-0.3010 GREET ROBERT AT
-0.3010 GREET ROBIN AT
-0.3010 GREET SKYLER AT
-0.3010 GREET WILLIAM AT
-0.3010 GUESTS IN THE
-0.6021 GUIDE ALEX FROM
-0.6021 GUIDE ALEX TO
-0.3010 GUIDE CHARLIE TO
-0.3010 GUIDE ELIZABETH TO
-0.3010 GUIDE FRANCIS TO
-1.5051 GUIDE HER </s>
-0.6021 GUIDE HER BACK
-0.6601 GUIDE HER TO
-0.9890 GUIDE HIM </s>
-0.7782 GUIDE HIM BACK
-0.6368 GUIDE HIM TO
-0.3010 GUIDE JAMES TO
-0.7782 GUIDE JOHN FROM
-0.4771 GUIDE JOHN TO
-0.3010 GUIDE LINDA TO
-0.3010 GUIDE MICHAEL TO
-0.3010 GUIDE PATRICIA TO
-0.3010 GUIDE ROBERT TO
-0.3010 GUIDE ROBIN TO
-0.4771 GUIDE SKYLER FROM
-0.7782 GUIDE SKYLER TO
-0.3010 GUIDE WILLIAM TO
-0.3010 HEAVIEST CONTAINERS ON
-0.3010 HEAVIEST FOOD ON
-0.7782 HEAVIEST FRUITS FROM
-0.4771 HEAVIEST FRUITS ON
-0.3010 HEAVIEST OBJECT FROM
-0.3010 HEAVIEST OBJECTS ON
-0.6021 HEAVIEST TABLEWARE FROM
-0.6021 HEAVIEST TABLEWARE ON
-1.3874 HER AND ACCOMPANY
-1.4843 HER AND ESCORT
-0.8076 HER AND GO
-1.1321 HER AND GUIDE
-1.3874 HER AND LEAD
-0.9402 HER AND NAVIGATE
-1.3874 HER AND TAKE
-0.3010 HER AT THE
-0.3010 HER BACK </s>
-0.3010 HER CAB </s>
-0.3010 HER TAXI </s>
-1.2923 HER TO ALL
-1.8663 HER TO EVERYONE
-1.2379 HER TO HER
-1.1461 HER TO LEAVE
-0.5141 HER TO THE
-0.3010 HER UBER </s>
-1.6021 HER, AND ACCOMPANY
-1.3802 HER, AND ESCORT
-0.7782 HER, AND GO
-1.2341 HER, AND GUIDE
-1.1761 HER, AND LEAD
-0.9652 HER, AND NAVIGATE
-1.4771 HER, AND TAKE
-1.3222 HIM AND ACCOMPANY
-1.4983 HIM AND ESCORT
-0.8963 HIM AND GO
-1.3222 HIM AND GUIDE
-1.3222 HIM AND LEAD
-0.8963 HIM AND NAVIGATE
-1.1461 HIM AND TAKE
-0.3010 HIM AT THE
-0.3010 HIM BACK </s>
-1.3689 HIM TO ALL
-1.4415 HIM TO EVERYONE
-1.0515 HIM TO HIS
-1.2276 HIM TO LEAVE
-0.5638 HIM TO THE
-1.3502 HIM, AND ACCOMPANY
-1.4472 HIM, AND ESCORT
-0.8731 HIM, AND GO
-1.2041 HIM, AND GUIDE
-1.1461 HIM, AND LEAD
-1.0492 HIM, AND NAVIGATE
-1.2041 HIM, AND TAKE
-0.3010 HIS CAB </s>
-0.3010 HIS TAXI </s>
-0.3010 HIS UBER </s>
-2.2695 HOW MANY APPLE
-1.7924 HOW MANY BOWL
-1.7924 HOW MANY CLEANING
-1.2695 HOW MANY CLOTH
-1.5705 HOW MANY CONTAINERS
-1.7924 HOW MANY CUTLERY
-1.7924 HOW MANY DRINKS
-2.2695 HOW MANY FOOD
-2.2695 HOW MANY FRUITS
-2.2695 HOW MANY KNIFE
-2.2695 HOW MANY ORANGE
-2.2695 HOW MANY PAPRIKA
-0.6567 HOW MANY PEOPLE
-2.2695 HOW MANY SNACKS
-2.2695 HOW MANY SPRITE
-1.4244 HOW MANY TABLEWARE
-1.2695 HOW MANY TRAY
-1.0827 IN THE BEDROOM
-1.9650 IN THE BEDROOM.
-1.0355 IN THE CORRIDOR
-1.9138 IN THE CORRIDOR.
-0.9542 IN THE DINING
-1.0827 IN THE KITCHEN
-2.5670 IN THE KITCHEN.
-0.9760 IN THE LIVING
-0.3010 INTRODUCE HER TO
-0.3010 INTRODUCE HIM TO
-0.3010 INTRODUCE IT TO
-0.6021 IS TODAY </s>
-0.6021 IS TODAY TO
-0.3010 IS TOMORROW </s>
-0.3010 IT ON THE
-1.3480 IT TO ALEX
-1.7160 IT TO CHARLIE
-1.4942 IT TO ELIZABETH
-1.4942 IT TO FRANCIS
-1.5911 IT TO JAMES
-1.7160 IT TO JENNIFER
-1.5911 IT TO JOHN
-1.7160 IT TO LINDA
-1.7160 IT TO MARY
-1.1139 IT TO ME
-1.4150 IT TO MICHAEL
-1.2900 IT TO PATRICIA
-1.7160 IT TO ROBERT
-1.4150 IT TO ROBIN
-1.5911 IT TO SKYLER
-1.8921 IT TO WILLIAM
-0.9031 JAMES AND ESCORT
-0.6021 JAMES AND FOLLOW
-0.9031 JAMES AND TAKE
-0.3010 JAMES AT THE
-0.3010 JAMES FROM THE
-0.3010 JAMES TO THE
-0.7782 JAMES, AND FOLLOW
-0.7782 JAMES, AND GUIDE
-0.7782 JAMES, AND TAKE
-0.7782 JENNIFER AND FOLLOW
-1.0792 JENNIFER AND GUIDE
-1.0792 JENNIFER AND LEAD
-0.7782 JENNIFER AND TAKE
-0.3010 JENNIFER AT THE
-0.3010 JENNIFER FROM THE
-0.3010 JENNIFER TO THE
-0.7782 JENNIFER, AND ESCORT
-0.7782 JENNIFER, AND FOLLOW
-0.7782 JENNIFER, AND TAKE
-0.9031 JOHN AND ACCOMPANY
-1.2041 JOHN AND ESCORT
-1.2041 JOHN AND FOLLOW
-1.2041 JOHN AND GUIDE
-1.2041 JOHN AND LEAD
-0.9031 JOHN AND TAKE
-0.3010 JOHN AT THE
-0.3010 JOHN FROM THE
-0.3010 JOHN TO THE
-0.3010 JOKE TO THE
-0.3010 JUICE FROM THE
-0.3010 JUICE TO THE
-0.9031 KITCHEN AND ANSWER
-0.9031 KITCHEN AND SAY
-0.6021 KITCHEN AND TELL
-0.7782 KITCHEN ARE BOYS
-1.0792 KITCHEN ARE SITTING
-0.7782 KITCHEN ARE STANDING
-1.0792 KITCHEN ARE WOMEN
-0.3010 KITCHEN FIND A
-0.3010 KITCHEN LOCATE A
-0.3010 KITCHEN LOOK FOR
-0.3010 KITCHEN TO THE
-0.3010 KITCHEN, LOCATE A
-0.3010 KITCHEN, LOOK FOR
-0.3010 KNIFE THERE ARE
-0.3010 KNIFE TO THE
-0.3010 LARGEST CLEANING STUFF
-0.3010 LARGEST CONTAINERS ON
-0.3010 LARGEST CUTLERY FROM
-0.3010 LARGEST DRINKS ON
-0.3010 LARGEST FOOD ON
-0.4260 LARGEST OBJECT FROM
-0.9031 LARGEST OBJECT ON
-0.3010 LARGEST OBJECTS ON
-0.3010 LARGEST TABLEWARE ON
-0.3010 LEAD ALEX TO
-0.7782 LEAD CHARLIE FROM
-0.4771 LEAD CHARLIE TO
-0.4771 LEAD ELIZABETH FROM
-0.7782 LEAD ELIZABETH TO
-0.3010 LEAD FRANCIS FROM
-1.0687 LEAD HER </s>
-0.7999 LEAD HER BACK
-0.5916 LEAD HER TO
-0.9912 LEAD HIM </s>
-0.8451 LEAD HIM BACK
-0.5933 LEAD HIM TO
-0.3010 LEAD JAMES TO
-0.3010 LEAD JENNIFER TO
-0.7782 LEAD JOHN FROM
-0.4771 LEAD JOHN TO
-0.3010 LEAD LINDA FROM
-0.4771 LEAD MARY FROM
-0.7782 LEAD MARY TO
-0.3010 LEAD PATRICIA TO
-0.3010 LEAD ROBERT TO
-0.3010 LEAD ROBIN TO
-0.3010 LEAD SKYLER TO
-1.3617 LEFT ARM AND
-0.3405 LEFT ARM IN
-0.3010 LEFT ARM, AND
-0.3010 LEFT IN THE
-0.3010 LEFT MOST OBJECT
-0.3010 LEFT OF THE
-0.3010 LIGHTEST CUTLERY ON
-0.6021 LIGHTEST DRINKS FROM
-0.6021 LIGHTEST DRINKS ON
-0.3010 LIGHTEST FRUITS ON
-0.6021 LIGHTEST OBJECT FROM
-0.6021 LIGHTEST OBJECT ON
-0.3010 LIGHTEST OBJECTS ON
-0.3010 LIGHTEST SNACKS FROM
-0.6021 LIGHTEST TABLEWARE FROM
-0.6021 LIGHTEST TABLEWARE ON
-0.7782 LINDA AND ACCOMPANY
-1.0792 LINDA AND FOLLOW
-0.6021 LINDA AND LEAD
-0.3010 LINDA AT THE
-0.3010 LINDA FROM THE
-0.3010 LINDA TO THE
-1.0792 LINDA, AND ESCORT
-0.7782 LINDA, AND FOLLOW
-1.0792 LINDA, AND GUIDE
-0.7782 LINDA, AND LEAD
-0.3690 LIVING ROOM </s>
-1.6173 LIVING ROOM AND
-1.5593 LIVING ROOM ARE
-2.4624 LIVING ROOM FIND
-2.4624 LIVING ROOM LOCATE
-2.1614 LIVING ROOM LOOK
-2.1614 LIVING ROOM TO
-0.7782 LIVING ROOM, FIND
-0.4771 LIVING ROOM, LOOK
-0.3010 LIVING ROOM. </s>
-1.6435 LOCATE A BOY
-1.6435 LOCATE A FEMALE
-1.6435 LOCATE A GIRL,
-1.3424 LOCATE A MALE
-1.3424 LOCATE A MAN
-0.5295 LOCATE A PERSON
-1.6435 LOCATE A WOMAN
-1.6435 LOCATE A WOMAN,
-1.9243 LOCATE THE APPLE
-1.3222 LOCATE THE BOWL
-1.6232 LOCATE THE BOWL,
-1.9243 LOCATE THE CLEANING
-1.4472 LOCATE THE CLOTH
-1.6232 LOCATE THE CONTAINERS
-1.9243 LOCATE THE DISH
-1.6232 LOCATE THE DRINKS
-1.6232 LOCATE THE FOOD
-0.9243 LOCATE THE FRUITS
-1.9243 LOCATE THE PAPRIKA
-1.9243 LOCATE THE PAPRIKA,
-1.9243 LOCATE THE SAUSAGES,
-1.9243 LOCATE THE SNACKS
-1.4472 LOCATE THE TABLEWARE
-1.2253 LOCATE THE TRAY
-1.6232 LOCATE THE TRAY,
-0.8451 LOCATE THREE DRINKS
-1.1461 LOCATE THREE FOOD
-1.1461 LOCATE THREE FRUITS
-0.8451 LOCATE THREE SNACKS
-1.1461 LOCATE THREE TABLEWARE
-0.8085 LOOK FOR A
-0.5682 LOOK FOR THE
-1.1289 LOOK FOR THREE
-0.6690 LYING DOWN </s>
-0.8451 LYING DOWN AND
-0.8451 LYING DOWN IN
-0.3010 MAIN DOOR AND
-0.3010 MAIN ENTRANCE AND
-0.3010 MALE PERSON AND
-0.3010 MALE PERSON, AND
-0.4771 MAN AND ANSWER
-0.7782 MAN AND SAY
-0.3010 MAN IN THE
-0.3010 MANY APPLE THERE
-0.3010 MANY BOWL THERE
-0.3010 MANY CLEANING STUFF
-0.3010 MANY CLOTH THERE
-0.3010 MANY CONTAINERS THERE
-0.3010 MANY CUTLERY THERE
-0.3010 MANY DRINKS THERE
-0.3010 MANY FOOD THERE
-0.3010 MANY FRUITS THERE
-0.3010 MANY KNIFE THERE
-0.3010 MANY ORANGE THERE
-0.3010 MANY PAPRIKA THERE
-0.3010 MANY PEOPLE IN
-0.3010 MANY SNACKS THERE
-0.3010 MANY SPRITE THERE
-0.3010 MANY TABLEWARE THERE
-0.3010 MANY TRAY THERE
-0.7782 MARY AND ESCORT
-0.7782 MARY AND GUIDE
-0.7782 MARY AND LEAD
-0.3010 MARY AT THE
-0.3010 MARY FROM THE
-0.3010 MARY TO THE
-0.6284 MAY FIND HER
-0.5772 MAY FIND HIM
-0.3010 ME HOW MANY
-1.6593 ME THE APPLE
-1.7976 ME THE BIGGEST
-2.3997 ME THE BOWL
-2.3997 ME THE CHOCOLATE
-2.0986 ME THE CLEANING
-1.9226 ME THE CLOTH
-2.7007 ME THE COKE
-2.7007 ME THE CRACKERS
-2.2236 ME THE CUTLERY
-2.0017 ME THE DRINKS
-1.4703 ME THE FRUITS
-1.3028 ME THE GENDER
-1.8556 ME THE HEAVIEST
-2.0017 ME THE LARGEST
-1.4454 ME THE LEFT
-2.0017 ME THE LIGHTEST
-1.3205 ME THE NAME
-1.1822 ME THE OBJECT
-2.0986 ME THE ORANGE
-2.0017 ME THE PAPRIKA
-1.3390 ME THE POSE
-1.4703 ME THE RIGHT
-1.7976 ME THE SMALLEST
-2.7007 ME THE SNACKS
-2.3997 ME THE TABLEWARE
-1.7465 ME THE THINNEST
-2.0017 ME THE TRAY
-0.3010 ME WHAT S
-0.3010 ME WHAT'S THE
-0.3010 ME WHICH ARE
-0.8829 MEET ALEX AND
-0.4329 MEET ALEX AT
-0.3010 MEET ALEX, AND
-0.9294 MEET CHARLIE AND
-0.4175 MEET CHARLIE AT
-0.3010 MEET CHARLIE, AND
-0.8293 MEET ELIZABETH AND
-0.4536 MEET ELIZABETH AT
-0.3010 MEET ELIZABETH, AND
-0.9379 MEET FRANCIS AND
-0.4150 MEET FRANCIS AT
-0.3010 MEET FRANCIS, AND
-1.1903 MEET JAMES AND
-0.3610 MEET JAMES AT
-0.3010 MEET JAMES, AND
-0.9031 MEET JENNIFER AND
-0.4260 MEET JENNIFER AT
-0.3010 MEET JENNIFER, AND
-0.8293 MEET JOHN AND
-0.4536 MEET JOHN AT
-0.9031 MEET LINDA AND
-0.4260 MEET LINDA AT
-0.3010 MEET LINDA, AND
-1.0792 MEET MARY AND
-0.3802 MEET MARY AT
-0.8239 MEET MICHAEL AND
-0.4559 MEET MICHAEL AT
-0.3010 MEET MICHAEL, AND
-1.1461 MEET PATRICIA AND
-0.3680 MEET PATRICIA AT
-0.3010 MEET PATRICIA, AND
-0.9823 MEET ROBERT AND
-0.4025 MEET ROBERT AT
-0.3010 MEET ROBERT, AND
-0.8394 MEET ROBIN AND
-0.4494 MEET ROBIN AT
-0.3010 MEET ROBIN, AND
-1.0000 MEET SKYLER AND
-0.3979 MEET SKYLER AT
-0.3010 MEET SKYLER, AND
-0.8751 MEET WILLIAM AND
-0.4357 MEET WILLIAM AT
-0.3010 MEET WILLIAM, AND
-0.3010 MEN IN THE
-0.6021 MICHAEL AND FOLLOW
-1.0792 MICHAEL AND GUIDE
-0.7782 MICHAEL AND TAKE
-0.3010 MICHAEL AT THE
-0.3010 MICHAEL FROM THE
-0.3010 MICHAEL TO THE
-0.7782 MICHAEL, AND ESCORT
-0.7782 MICHAEL, AND FOLLOW
-0.7782 MICHAEL, AND LEAD
-0.3010 MONTH TO THE
-0.3010 MOST OBJECT FROM
-0.3010 MY BAG TO
-0.3010 MY BAGGAGE TO
-0.3010 MY SUITCASE TO
-0.3010 MY TROLLEY TO
-0.3010 MY VALISE TO
-0.3010 NAME OF THE
-0.3010 NAME TO THE
-0.3010 NAVIGATE TO THE
-0.8653 NEATEN THE BEDROOM
-1.3424 NEATEN THE DINING
-1.0414 NEATEN THE KITCHEN
-0.6435 NEATEN THE LIVING
-0.3010 NOODLES FROM THE
-0.3010 NOODLES TO THE
-0.3010 OBJECT ABOVE THE
-0.3010 OBJECT AT THE
-0.3010 OBJECT BEHIND THE
-0.3010 OBJECT FROM THE
-0.5315 OBJECT ON THE
-0.6864 OBJECT ON TOP
-0.3010 OBJECT UNDER THE
-0.3010 OBJECTS ON THE
-1.8107 OF THE APPLE
-1.5888 OF THE MONTH
-2.2878 OF THE NOODLES
-1.9868 OF THE ORANGE
-1.8107 OF THE PAPRIKA
-0.4305 OF THE PERSON
-1.8107 OF THE POTATO
-2.2878 OF THE SAUSAGES
-1.9868 OF THE SPONGE
-1.5888 OF THE WEEK
-1.3118 ON THE BOOKCASE
-1.2704 ON THE COUNTER
-1.1504 ON THE CUPBOARD
-1.2326 ON THE DESK
-1.3118 ON THE DINING
-1.3823 ON THE END
-1.1504 ON THE SIDE
-1.2326 ON THE SINK
-1.3118 ON THE STORAGE
-0.3010 ON TOP OF
-0.7782 OP THE BEDROOM
-1.0792 OP THE CORRIDOR
-1.0792 OP THE DINING
-1.0792 OP THE KITCHEN
-1.0792 OP THE LIVING
-0.3010 ORANGE AND PUT
-0.3010 ORANGE FROM THE
-0.3010 ORANGE IN THE
-0.3010 ORANGE ON THE
-0.3010 ORANGE THERE ARE
-0.3010 ORANGE TO ME
-0.7782 ORANGE, AND BRING
-0.7782 ORANGE, AND DELIVER
-0.7782 ORANGE, AND PLACE
-1.0000 ORDER THE CORRIDOR
-1.0000 ORDER THE DINING
-0.5229 ORDER THE LIVING
-1.4624 OUT THE BEDROOM
-1.2863 OUT THE CORRIDOR
-1.1614 OUT THE DEBRIS
-1.7634 OUT THE DINING
-1.4624 OUT THE GARBAGE
-1.4624 OUT THE JUNK
-1.4624 OUT THE KITCHEN
-0.9853 OUT THE LITTER
-1.4624 OUT THE LIVING
-1.2863 OUT THE TRASH
-1.4624 OUT THE WASTE
-0.6021 PAPRIKA AND PLACE
-0.6021 PAPRIKA AND PUT
-0.3010 PAPRIKA FROM THE
-0.3010 PAPRIKA IN THE
-0.3010 PAPRIKA THERE ARE
-0.6021 PAPRIKA TO ME
-0.6021 PAPRIKA TO THE
-0.6021 PAPRIKA, AND GIVE
-0.6021 PAPRIKA, AND PUT
-0.6990 PATRICIA AND ESCORT
-0.5229 PATRICIA AND LEAD
-0.3010 PATRICIA AT THE
-0.3010 PATRICIA FROM THE
-0.3010 PATRICIA TO THE
-0.5229 PATRICIA, AND FOLLOW
-1.0000 PATRICIA, AND GUIDE
-1.0000 PATRICIA, AND LEAD
-0.3010 PEOPLE IN THE
-0.4260 PERSON AND ANSWER
-0.9031 PERSON AND SAY
-0.3010 PERSON AT THE
-0.3010 PERSON IN THE
-0.3010 PERSON LYING DOWN
-0.3010 PERSON POINTING TO
-0.3010 PERSON RAISING THEIR
-0.8451 PERSON SITTING AND
-0.4472 PERSON SITTING IN
-0.3010 PERSON SITTING, AND
-0.3010 PERSON STANDING AND
-0.3010 PERSON STANDING, AND
-1.5315 PERSON WAVING AND
-0.3274 PERSON WAVING IN
-0.3010 PERSON WAVING, AND
-0.6990 PERSON, AND ANSWER
-0.6990 PERSON, AND SAY
-1.0000 PERSON, AND TELL
-0.3010 PICK UP THE
-0.3010 PLACE IT ON
-0.6690 PLACE THE BOWL
-1.1461 PLACE THE CEREAL
-0.8451 PLACE THE CLOTH
-1.1461 PLACE THE TRAY
-1.2041 PLEASE ACCOMPANY ALEX
-1.5051 PLEASE ACCOMPANY CHARLIE
-1.5051 PLEASE ACCOMPANY ELIZABETH
-1.5051 PLEASE ACCOMPANY JAMES
-1.5051 PLEASE ACCOMPANY JENNIFER
-1.5051 PLEASE ACCOMPANY JOHN
-1.0280 PLEASE ACCOMPANY MICHAEL
-1.5051 PLEASE ACCOMPANY PATRICIA
-1.5051 PLEASE ACCOMPANY ROBERT
-1.5051 PLEASE ACCOMPANY ROBIN
-1.2041 PLEASE ACCOMPANY SKYLER
-1.5051 PLEASE ACCOMPANY WILLIAM
-0.3010 PLEASE ANSWER A
-0.6021 PLEASE ARRANGE DRINKS
-0.6021 PLEASE ARRANGE SNACKS
-1.9542 PLEASE BRING CLEANING
-1.9542 PLEASE BRING FRUITS
-0.4491 PLEASE BRING ME
-1.6532 PLEASE BRING MY
-1.0000 PLEASE BRING THE
-0.8451 PLEASE CLEAN OUT
-0.4472 PLEASE CLEAN UP
-0.9243 PLEASE CONTACT CHARLIE
-1.6232 PLEASE CONTACT ELIZABETH
-1.3222 PLEASE CONTACT FRANCIS
-1.3222 PLEASE CONTACT JAMES
-0.9243 PLEASE CONTACT LINDA
-1.6232 PLEASE CONTACT MICHAEL
-1.3222 PLEASE CONTACT ROBERT
-1.6232 PLEASE CONTACT ROBIN
-1.3222 PLEASE CONTACT SKYLER
-1.1139 PLEASE DELIVER CLEANING
-1.4150 PLEASE DELIVER DRINKS
-1.1139 PLEASE DELIVER FOOD
-0.8129 PLEASE DELIVER FRUITS
-1.4150 PLEASE DELIVER SNACKS
-0.9379 PLEASE DELIVER THE
-0.3010 PLEASE DUMP THE
-0.9542 PLEASE ESCORT ALEX
-1.2553 PLEASE ESCORT JAMES
-1.2553 PLEASE ESCORT JENNIFER
-1.2553 PLEASE ESCORT MARY
-1.2553 PLEASE ESCORT PATRICIA
-1.2553 PLEASE ESCORT ROBIN
-1.2553 PLEASE ESCORT SKYLER
-1.2553 PLEASE ESCORT WILLIAM
-1.0414 PLEASE FACE ALEX
-1.3424 PLEASE FACE CHARLIE
-1.0414 PLEASE FACE JAMES
-0.8653 PLEASE FACE JENNIFER
-1.3424 PLEASE FACE JOHN
-1.3424 PLEASE FACE ROBERT
-1.3424 PLEASE FACE ROBIN
-0.9823 PLEASE FIND A
-1.3802 PLEASE FIND ALEX
-1.3802 PLEASE FIND CHARLIE
-1.3802 PLEASE FIND JENNIFER
-1.6812 PLEASE FIND PATRICIA
-1.6812 PLEASE FIND ROBERT
-0.7782 PLEASE FIND THE
-1.3802 PLEASE FIND THREE
-1.6812 PLEASE FIND WILLIAM
-1.2304 PLEASE FOLLOW ALEX
-1.1335 PLEASE FOLLOW CHARLIE
-1.5315 PLEASE FOLLOW ELIZABETH
-1.1335 PLEASE FOLLOW FRANCIS
-1.8325 PLEASE FOLLOW JAMES
-1.8325 PLEASE FOLLOW JENNIFER
-1.5315 PLEASE FOLLOW JOHN
-1.8325 PLEASE FOLLOW LINDA
-1.5315 PLEASE FOLLOW MARY
-1.5315 PLEASE FOLLOW MICHAEL
-1.8325 PLEASE FOLLOW PATRICIA
-1.8325 PLEASE FOLLOW ROBERT
-1.5315 PLEASE FOLLOW ROBIN
-1.2304 PLEASE FOLLOW SKYLER
-1.8325 PLEASE FOLLOW WILLIAM
-0.3010 PLEASE GET THE
-1.9031 PLEASE GIVE CLEANING
-1.9031 PLEASE GIVE CUTLERY
-1.6021 PLEASE GIVE DRINKS
-1.4260 PLEASE GIVE FRUITS
-0.4407 PLEASE GIVE ME
-1.9031 PLEASE GIVE SNACKS
-1.4260 PLEASE GIVE THE
-0.3010 PLEASE GO TO
-0.3010 PLEASE GRASP THE
-1.3424 PLEASE GREET CHARLIE
-1.3424 PLEASE GREET JENNIFER
-1.3424 PLEASE GREET LINDA
-1.3424 PLEASE GREET PATRICIA
-1.0414 PLEASE GREET ROBIN
-0.7404 PLEASE GREET SKYLER
-1.3424 PLEASE GREET WILLIAM
-0.9031 PLEASE GUIDE ELIZABETH
-0.9031 PLEASE GUIDE FRANCIS
-0.9031 PLEASE GUIDE JAMES
-0.9031 PLEASE GUIDE LINDA
-1.2041 PLEASE LEAD ALEX
-1.2041 PLEASE LEAD ELIZABETH
-0.9031 PLEASE LEAD FRANCIS
-1.2041 PLEASE LEAD JENNIFER
-1.2041 PLEASE LEAD JOHN
-1.2041 PLEASE LEAD MARY
-1.2041 PLEASE LEAD PATRICIA
-1.4472 PLEASE LOCATE A
-0.3680 PLEASE LOCATE THE
-1.4472 PLEASE LOCATE THREE
-0.3010 PLEASE LOOK FOR
-1.1793 PLEASE MEET ALEX
-1.3554 PLEASE MEET CHARLIE
-1.6564 PLEASE MEET ELIZABETH
-1.2041 PLEASE MEET FRANCIS
-1.4346 PLEASE MEET JAMES
-1.9574 PLEASE MEET JENNIFER
-1.4803 PLEASE MEET JOHN
-1.7356 PLEASE MEET LINDA
-2.1335 PLEASE MEET MARY
-1.8325 PLEASE MEET MICHAEL
-1.3206 PLEASE MEET PATRICIA
-1.8325 PLEASE MEET ROBERT
-1.3932 PLEASE MEET ROBIN
-1.3206 PLEASE MEET SKYLER
-1.4803 PLEASE MEET WILLIAM
-0.3010 PLEASE NAVIGATE TO
-0.3010 PLEASE ORDER THE
-0.3010 PLEASE PICK UP
-0.3010 PLEASE PLACE THE
-0.7782 PLEASE PROVIDE DRINKS
-0.4771 PLEASE PROVIDE SNACKS
-0.3010 PLEASE PUT THE
-0.9031 PLEASE SAY A
-0.9031 PLEASE SAY SOMETHING
-0.6021 PLEASE SAY THE
-0.3010 PLEASE SERVE SNACKS
-1.7482 PLEASE TAKE ALEX
-1.7482 PLEASE TAKE CHARLIE
-1.7482 PLEASE TAKE FRANCIS
-1.7482 PLEASE TAKE JENNIFER
-1.7482 PLEASE TAKE MICHAEL
-1.1461 PLEASE TAKE MY
-0.9031 PLEASE TAKE OUT
-1.7482 PLEASE TAKE PATRICIA
-0.7482 PLEASE TAKE THE
-1.7482 PLEASE TAKE WILLIAM
-0.3129 PLEASE TELL ME
-2.1703 PLEASE TELL THE
-2.1703 PLEASE TELL YOUR
-0.3010 PLEASE TIDY OP
-0.3010 POD FROM THE
-0.3010 POINTING TO THE
-0.3010 POSE OF THE
-0.3979 POTATO CHIPS FROM
-1.0000 POTATO CHIPS TO
-0.3010 PRINGLES TO THE
-0.3010 PROVIDE DRINKS TO
-0.3010 PROVIDE SNACKS TO
-0.3010 PUT IT ON
-1.4150 PUT THE APPLE
-0.8129 PUT THE BOWL
-1.4150 PUT THE CLOTH
-1.4150 PUT THE COKE
-1.1139 PUT THE ORANGE
-0.8129 PUT THE TRAY
-0.3010 QUESTION TO THE
-0.4942 RAISING THEIR LEFT
-0.7460 RAISING THEIR RIGHT
-0.3010 REAR DOOR AND
-0.3010 REAR ENTRANCE AND
-0.3010 RIGHT ARM IN
-0.3010 RIGHT IN THE
-0.3010 RIGHT MOST OBJECT
-0.3010 RIGHT OF THE
-1.0000 ROBERT AND FOLLOW
-1.0000 ROBERT AND LEAD
-0.5229 ROBERT AND TAKE
-0.3010 ROBERT AT THE
-0.3010 ROBERT FROM THE
-0.3010 ROBERT TO THE
-1.1461 ROBERT, AND ACCOMPANY
-0.5441 ROBERT, AND FOLLOW
-0.8451 ROBERT, AND LEAD
-0.8653 ROBIN AND ACCOMPANY
-0.8653 ROBIN AND ESCORT
-1.0414 ROBIN AND FOLLOW
-1.3424 ROBIN AND LEAD
-1.0414 ROBIN AND TAKE
-0.3010 ROBIN AT THE
-0.3010 ROBIN FROM THE
-0.3010 ROBIN TO THE
-1.3010 ROBIN, AND ACCOMPANY
-1.0000 ROBIN, AND ESCORT
-0.6990 ROBIN, AND FOLLOW
-1.3010 ROBIN, AND LEAD
-1.0000 ROBIN, AND TAKE
-1.6946 ROBOT PLEASE ACCOMPANY
-1.9956 ROBOT PLEASE ANSWER
-2.5977 ROBOT PLEASE ARRANGE
-1.5185 ROBOT PLEASE BRING
-2.1206 ROBOT PLEASE CLEAN
-1.7526 ROBOT PLEASE CONTACT
-2.1206 ROBOT PLEASE DELIVER
-2.2967 ROBOT PLEASE DUMP
-2.5977 ROBOT PLEASE ESCORT
-2.2967 ROBOT PLEASE FACE
-1.5185 ROBOT PLEASE FIND
-1.4516 ROBOT PLEASE FOLLOW
-2.2967 ROBOT PLEASE GET
-1.5563 ROBOT PLEASE GIVE
-1.6435 ROBOT PLEASE GO
-2.5977 ROBOT PLEASE GRASP
-1.9956 ROBOT PLEASE GREET
-1.8987 ROBOT PLEASE LEAD
-2.1206 ROBOT PLEASE LOCATE
-1.6435 ROBOT PLEASE LOOK
-0.9849 ROBOT PLEASE MEET
-1.5563 ROBOT PLEASE NAVIGATE
-2.5977 ROBOT PLEASE ORDER
-2.5977 ROBOT PLEASE SAY
-2.5977 ROBOT PLEASE SERVE
-1.8195 ROBOT PLEASE TAKE
-1.2360 ROBOT PLEASE TELL
-2.5977 ROBOT PLEASE TIDY
-0.6990 ROOM AND ANSWER
-0.7782 ROOM AND SAY
-0.8751 ROOM AND TELL
-1.2041 ROOM ARE BOYS
-1.5051 ROOM ARE FEMALE
-1.5051 ROOM ARE GIRLS
-1.2041 ROOM ARE LYING
-1.5051 ROOM ARE MALE
-1.2041 ROOM ARE MEN
-1.0280 ROOM ARE SITTING
-1.5051 ROOM ARE STANDING
-1.0280 ROOM ARE WOMEN
-0.3010 ROOM FIND A
-0.3010 ROOM LOCATE A
-0.3010 ROOM LOOK FOR
-0.3010 ROOM TO THE
-0.3010 ROOM, FIND A
-0.3010 ROOM, LOCATE A
-0.3010 ROOM, LOOK FOR
-0.3010 S COUNTRY </s>
-0.3979 S NAME </s>
-1.0000 S NAME TO
-1.3222 S THE BIGGEST
-1.6232 S THE HEAVIEST
-1.0212 S THE LARGEST
-1.0212 S THE LIGHTEST
-0.8451 S THE SMALLEST
-1.0212 S THE THINNEST
-0.3010 SAUSAGES FROM THE
-0.3010 SAUSAGES IN THE
-0.3010 SAUSAGES TO THE
-0.3010 SAUSAGES, AND PLACE
-0.3010 SAY A JOKE
-0.3010 SAY SOMETHING ABOUT
-0.8239 SAY THE DAY
-0.4559 SAY THE TIME
-0.3010 SAY WHAT DAY
-0.4260 SAY YOUR TEAM
-0.9031 SAY YOUR TEAM'S
-0.3010 SCRUBBY FROM THE
-0.3010 SCRUBBY TO THE
-0.3010 SERVE DRINKS TO
-0.3010 SERVE SNACKS TO
-0.3326 SIDE TABLE </s>
-2.0569 SIDE TABLE AND
-1.7559 SIDE TABLE FIND
-2.0569 SIDE TABLE LOOK
-0.4771 SIDE TABLE, FIND
-0.7782 SIDE TABLE, LOCATE
-1.4150 SINK AND ASK
-1.7160 SINK AND DELIVER
-1.4150 SINK AND ESCORT
-0.7160 SINK AND FOLLOW
-1.7160 SINK AND GUIDE
-1.1139 SINK AND INTRODUCE
-1.4150 SINK AND LEAD
-1.1139 SINK AND PUT
-0.7404 SINK FOLLOW HER
-0.4973 SINK FOLLOW HIM
-0.3010 SINK LOOK FOR
-1.1139 SINK MEET ALEX
-1.4150 SINK MEET CHARLIE
-1.4150 SINK MEET ELIZABETH
-1.1139 SINK MEET FRANCIS
-1.4150 SINK MEET JENNIFER
-1.4150 SINK MEET JOHN
-0.9379 SINK MEET LINDA
-1.4150 SINK MEET PATRICIA
-1.4150 SINK MEET ROBIN
-0.3010 SINK TO THE
-0.3010 SINK YOU WILL
-0.3010 SINK, FIND THE
-0.4607 SINK, FOLLOW HER,
-0.8129 SINK, FOLLOW HIM,
-0.3010 SINK, LOCATE THE
-0.9031 SINK, MEET FRANCIS,
-1.2041 SINK, MEET JAMES,
-1.2041 SINK, MEET ROBIN,
-0.7270 SINK, MEET SKYLER,
-1.2041 SINK, MEET WILLIAM,
-0.3010 SINK, YOU MAY
-0.6021 SITTING AND ANSWER
-0.6021 SITTING AND TELL
-0.3010 SITTING IN THE
-0.3010 SITTING, AND ANSWER
-1.3424 SKYLER AND ACCOMPANY
-1.3424 SKYLER AND ESCORT
-0.8653 SKYLER AND FOLLOW
-1.3424 SKYLER AND GUIDE
-0.6435 SKYLER AND LEAD
-0.3010 SKYLER AT THE
-0.3010 SKYLER FROM THE
-0.3010 SKYLER TO THE
-1.1461 SKYLER, AND ACCOMPANY
-0.6021 SKYLER, AND FOLLOW
-0.9700 SKYLER, AND GUIDE
-1.1461 SKYLER, AND TAKE
-0.3010 SMALLEST CLEANING STUFF
-0.3010 SMALLEST CONTAINERS ON
-0.4260 SMALLEST CUTLERY FROM
-0.9031 SMALLEST CUTLERY ON
-0.3010 SMALLEST DRINKS ON
-0.3010 SMALLEST FOOD FROM
-0.3010 SMALLEST FRUITS ON
-0.3979 SMALLEST OBJECT FROM
-1.0000 SMALLEST OBJECT ON
-0.3010 SMALLEST SNACKS ON
-0.3010 SMALLEST TABLEWARE ON
-0.3010 SNACKS FROM THE
-0.3010 SNACKS IN THE
-0.3010 SNACKS ON THE
-0.3010 SNACKS THERE ARE
-0.6690 SNACKS TO ALL
-0.6232 SNACKS TO EVERYONE
-1.6232 SNACKS TO ME
-1.6232 SNACKS TO THE
-0.3010 SOMETHING ABOUT YOURSELF
-0.3010 SPONGE FROM THE
-0.3010 SPOON AND PLACE
-0.3010 SPOON FROM THE
-0.3010 SPOON TO THE
-0.3010 SPRITE THERE ARE
-0.3010 STANDING AND SAY
-0.7782 STANDING, AND ANSWER
-0.4771 STANDING, AND SAY
-0.3704 STORAGE TABLE </s>
-1.3874 STORAGE TABLE AND
-1.7853 STORAGE TABLE FIND
-1.7853 STORAGE TABLE LOOK
-0.3010 STUFF FROM THE
-0.3010 STUFF IN THE
-0.3010 STUFF ON THE
-0.3010 STUFF THERE ARE
-0.8451 STUFF TO ME
-0.4472 STUFF TO THE
-0.3010 SUITCASE TO THE
-2.2148 TABLE AND ACCOMPANY
-1.0107 TABLE AND ASK
-2.2148 TABLE AND BRING
-1.7377 TABLE AND DELIVER
-1.7377 TABLE AND ESCORT
-0.9596 TABLE AND FOLLOW
-2.2148 TABLE AND GIVE
-1.9138 TABLE AND GUIDE
-1.0687 TABLE AND INTRODUCE
-1.5159 TABLE AND LEAD
-1.3697 TABLE AND PLACE
-1.3697 TABLE AND PUT
-1.6128 TABLE AND TAKE
-0.3010 TABLE FIND THE
-0.5819 TABLE FOLLOW HER
-0.6232 TABLE FOLLOW HIM
-0.3010 TABLE LOCATE THE
-0.3010 TABLE LOOK FOR
-1.4150 TABLE MEET ALEX
-0.9379 TABLE MEET CHARLIE
-1.1139 TABLE MEET ELIZABETH
-1.4150 TABLE MEET FRANCIS
-1.4150 TABLE MEET LINDA
-1.4150 TABLE MEET ROBERT
-1.4150 TABLE MEET ROBIN
-1.1139 TABLE MEET SKYLER
-1.4150 TABLE MEET WILLIAM
-0.3010 TABLE TO THE
-1.0792 TABLE YOU CAN
-0.6021 TABLE YOU MAY
-0.7782 TABLE YOU WILL
-0.3010 TABLE, FIND THE
-0.5191 TABLE, FOLLOW HER,
-0.7047 TABLE, FOLLOW HIM,
-0.3010 TABLE, LOCATE THE
-0.3010 TABLE, LOOK FOR
-1.0792 TABLE, MEET ALEX,
-1.5563 TABLE, MEET CHARLIE,
-1.2553 TABLE, MEET FRANCIS,
-1.0792 TABLE, MEET LINDA,
-1.2553 TABLE, MEET MICHAEL,
-1.5563 TABLE, MEET PATRICIA,
-1.5563 TABLE, MEET ROBERT,
-1.0792 TABLE, MEET ROBIN,
-1.5563 TABLE, MEET SKYLER,
-1.5563 TABLE, MEET WILLIAM,
-0.7782 TABLE, YOU CAN
-0.4771 TABLE, YOU MAY
-0.3010 TABLEWARE FROM THE
-0.3010 TABLEWARE IN THE
-0.3010 TABLEWARE ON THE
-0.3010 TABLEWARE THERE ARE
-0.3010 TABLEWARE TO THE
-0.3010 TAKE ALEX TO
-0.3010 TAKE CHARLIE TO
-0.3010 TAKE ELIZABETH FROM
-0.5441 TAKE FRANCIS FROM
-0.6690 TAKE FRANCIS TO
-0.9165 TAKE HER </s>
-0.8653 TAKE HER BACK
-0.6154 TAKE HER TO
-0.8773 TAKE HIM </s>
-0.7871 TAKE HIM BACK
-0.6902 TAKE HIM TO
-0.6021 TAKE JENNIFER FROM
-0.6021 TAKE JENNIFER TO
-0.6021 TAKE JOHN FROM
-0.6021 TAKE JOHN TO
-0.3010 TAKE LINDA TO
-0.6021 TAKE MARY FROM
-0.6021 TAKE MARY TO
-0.3010 TAKE MICHAEL FROM
-1.3802 TAKE MY BAG
-0.7782 TAKE MY BAGGAGE
-0.9031 TAKE MY SUITCASE
-1.3802 TAKE MY TROLLEY
-0.9031 TAKE MY VALISE
-0.3010 TAKE OUT THE
-0.3010 TAKE PATRICIA TO
-0.3010 TAKE ROBERT TO
-0.3010 TAKE ROBIN TO
-0.9345 TAKE THE APPLE
-1.3324 TAKE THE BOWL
-1.9345 TAKE THE CEREAL
-1.2355 TAKE THE CLOTH
-1.9345 TAKE THE COKE
-1.6335 TAKE THE CUP
-1.6335 TAKE THE KNIFE
-1.6335 TAKE THE NOODLES
-1.2355 TAKE THE ORANGE
-1.3324 TAKE THE PAPRIKA
-1.9345 TAKE THE POTATO
-1.9345 TAKE THE PRINGLES
-1.2355 TAKE THE TRAY
-0.3010 TAKE WILLIAM FROM
-0.8451 TEAM S COUNTRY
-0.4472 TEAM S NAME
-0.3010 TEAM'S COUNTRY TO
-0.6021 TEAM'S NAME </s>
-0.6021 TEAM'S NAME TO
-0.3010 TELL A JOKE
-0.6769 TELL ME HOW
-0.7881 TELL ME THE
-1.3232 TELL ME WHAT
-1.4150 TELL ME WHAT'S
-1.3901 TELL ME WHICH
-0.3010 TELL SOMETHING ABOUT
-0.4559 TELL THE DAY
-0.8239 TELL THE TIME
-0.3010 TELL WHAT DAY
-0.4771 TELL YOUR TEAM
-0.7782 TELL YOUR TEAM'S
-1.5798 THE APPLE </s>
-1.8808 THE APPLE AND
-0.3895 THE APPLE FROM
-1.5798 THE APPLE IN
-1.8808 THE APPLE ON
-1.8808 THE APPLE TO
-0.5563 THE BACK DOOR
-0.6532 THE BACK ENTRANCE
-0.7035 THE BED </s>
-0.8062 THE BED AND
-1.3291 THE BED FOLLOW
-1.5843 THE BED MEET
-1.2419 THE BED TO
-1.8062 THE BED YOU
-0.8293 THE BED, FOLLOW
-0.5863 THE BED, MEET
-1.0334 THE BED, YOU
-0.3971 THE BEDROOM </s>
-1.6232 THE BEDROOM AND
-1.3600 THE BEDROOM ARE
-2.4014 THE BEDROOM FIND
-2.4014 THE BEDROOM LOCATE
-2.1004 THE BEDROOM LOOK
-1.7993 THE BEDROOM TO
-0.3010 THE BEDROOM, FIND
-0.3010 THE BEDROOM. </s>
-0.9379 THE BIGGEST CLEANING
-1.1139 THE BIGGEST CUTLERY
-1.4150 THE BIGGEST FOOD
-1.4150 THE BIGGEST FRUITS
-0.8129 THE BIGGEST OBJECT
-1.4150 THE BIGGEST SNACKS
-1.4150 THE BIGGEST TABLEWARE
-0.5959 THE BOOKCASE </s>
-0.9848 THE BOOKCASE AND
-1.2711 THE BOOKCASE FOLLOW
-2.4472 THE BOOKCASE LOCATE
-2.4472 THE BOOKCASE LOOK
-1.4058 THE BOOKCASE MEET
-1.4472 THE BOOKCASE TO
-2.1461 THE BOOKCASE YOU
-1.6232 THE BOOKCASE, FIND
-0.6232 THE BOOKCASE, FOLLOW
-1.6232 THE BOOKCASE, LOCATE
-1.3222 THE BOOKCASE, LOOK
-0.8451 THE BOOKCASE, MEET
-1.6232 THE BOOKCASE, YOU
-1.6628 THE BOWL </s>
-0.8846 THE BOWL AND
-0.8846 THE BOWL FROM
-1.1856 THE BOWL IN
-1.1187 THE BOWL ON
-1.1187 THE BOWL TO
-0.3010 THE BOWL, AND
-0.3010 THE CAB </s>
-0.3010 THE CASCADE POD
-1.0000 THE CEREAL FROM
-1.0000 THE CEREAL ON
-0.5229 THE CEREAL TO
-0.3010 THE CHILDREN IN
-0.3010 THE CHOCOLATE DRINK
-0.3010 THE CLEANING STUFF
-1.1461 THE CLOTH </s>
-0.8829 THE CLOTH AND
-0.8103 THE CLOTH FROM
-1.1461 THE CLOTH IN
-1.4472 THE CLOTH ON
-1.4472 THE CLOTH TO
-0.3010 THE CLOTH, AND
-0.9031 THE COKE </s>
-0.9031 THE COKE ON
-0.6021 THE COKE TO
-0.3010 THE CONTAINERS IN
-0.3934 THE CORRIDOR </s>
-1.5351 THE CORRIDOR AND
-1.4771 THE CORRIDOR ARE
-2.0792 THE CORRIDOR LOCATE
-1.9031 THE CORRIDOR LOOK
-1.9031 THE CORRIDOR TO
-0.6021 THE CORRIDOR, FIND
-0.6021 THE CORRIDOR, LOCATE
-0.3010 THE CORRIDOR. </s>
-0.7964 THE COUCH </s>
-0.7827 THE COUCH AND
-1.1739 THE COUCH FOLLOW
-1.4427 THE COUCH MEET
-1.2464 THE COUCH TO
-1.8107 THE COUCH YOU
-0.7597 THE COUCH, FOLLOW
-0.6214 THE COUCH, MEET
-1.0607 THE COUCH, YOU
-0.3372 THE COUNTER </s>
-1.6990 THE COUNTER AND
-1.6990 THE COUNTER FIND
-0.3010 THE COUNTER, FIND
-0.6021 THE CRACKERS </s>
-0.6021 THE CRACKERS TO
-1.1461 THE CUP AND
-0.3680 THE CUP TO
-0.3729 THE CUPBOARD </s>
-1.2268 THE CUPBOARD AND
-2.0719 THE CUPBOARD FIND
-2.0719 THE CUPBOARD LOOK
-0.3010 THE CUPBOARD, LOOK
-0.7270 THE CUTLERY </s>
-0.5051 THE CUTLERY IN
-0.3010 THE DAY OF
-0.3010 THE DEBRIS </s>
-0.6077 THE DESK </s>
-0.9445 THE DESK AND
-2.1875 THE DESK FIND
-1.3746 THE DESK FOLLOW
-1.4886 THE DESK MEET
-1.3125 THE DESK TO
-2.0114 THE DESK YOU
-0.9031 THE DESK, FOLLOW
-1.5051 THE DESK, LOCATE
-1.2041 THE DESK, LOOK
-0.6021 THE DESK, MEET
-1.5051 THE DESK, YOU
-0.6437 THE DINING ROOM
-2.2148 THE DINING ROOM,
-2.1179 THE DINING ROOM.
-0.6646 THE DINING TABLE
-1.3697 THE DINING TABLE,
-0.7782 THE DISH FROM
-0.7782 THE DISH IN
-0.7782 THE DISH TO
-0.8305 THE DISHWASHER </s>
-0.9031 THE DISHWASHER AND
-1.0151 THE DISHWASHER FOLLOW
-1.2913 THE DISHWASHER MEET
-1.2041 THE DISHWASHER TO
-1.7684 THE DISHWASHER YOU
-0.6864 THE DISHWASHER, FOLLOW
-0.6284 THE DISHWASHER, MEET
-1.2304 THE DISHWASHER, YOU
-0.5051 THE DRINKS </s>
-0.7270 THE DRINKS IN
-0.3010 THE ELDERS IN
-0.3991 THE END TABLE
-0.9953 THE END TABLE,
-0.7206 THE ENTRANCE </s>
-0.8627 THE ENTRANCE AND
-1.1500 THE ENTRANCE FOLLOW
-1.4510 THE ENTRANCE MEET
-1.2402 THE ENTRANCE TO
-2.0531 THE ENTRANCE YOU
-0.6173 THE ENTRANCE, FOLLOW
-0.7220 THE ENTRANCE, MEET
-1.1614 THE ENTRANCE, YOU
-0.7270 THE EXIT </s>
-0.8653 THE EXIT AND
-1.2913 THE EXIT FOLLOW
-1.4674 THE EXIT MEET
-1.0994 THE EXIT TO
-1.9445 THE EXIT YOU
-0.5699 THE EXIT, FOLLOW
-0.7160 THE EXIT, MEET
-1.4150 THE EXIT, YOU
-0.3010 THE FOOD IN
-0.3010 THE FORK FROM
-0.6021 THE FRONT DOOR
-0.6021 THE FRONT ENTRANCE
-0.7518 THE FRUITS </s>
-0.4909 THE FRUITS IN
-0.3010 THE GARBAGE </s>
-0.3010 THE GENDER OF
-0.3010 THE GRAPE JUICE
-0.3010 THE GUESTS IN
-1.2553 THE HEAVIEST CONTAINERS
-1.2553 THE HEAVIEST FRUITS
-0.5563 THE HEAVIEST OBJECT
-0.9542 THE HEAVIEST TABLEWARE
-0.3010 THE JUNK </s>
-0.3836 THE KITCHEN </s>
-1.8028 THE KITCHEN AND
-1.6267 THE KITCHEN ARE
-2.4048 THE KITCHEN FIND
-1.9277 THE KITCHEN LOCATE
-2.4048 THE KITCHEN LOOK
-1.5597 THE KITCHEN TO
-0.3979 THE KITCHEN, LOCATE
-1.0000 THE KITCHEN, LOOK
-0.3010 THE KITCHEN. </s>
-0.3010 THE KNIFE TO
-1.4472 THE LARGEST CLEANING
-1.1461 THE LARGEST CONTAINERS
-1.4472 THE LARGEST CUTLERY
-1.4472 THE LARGEST DRINKS
-1.4472 THE LARGEST FOOD
-0.8451 THE LARGEST OBJECT
-0.8451 THE LARGEST TABLEWARE
-0.6123 THE LEFT IN
-0.6792 THE LEFT MOST
-1.3324 THE LEFT OF
-1.3010 THE LIGHTEST CUTLERY
-1.0000 THE LIGHTEST DRINKS
-1.3010 THE LIGHTEST FRUITS
-0.6990 THE LIGHTEST OBJECT
-1.3010 THE LIGHTEST SNACKS
-1.3010 THE LIGHTEST TABLEWARE
-0.3010 THE LITTER </s>
-0.3438 THE LIVING ROOM
-2.0280 THE LIVING ROOM,
-1.4260 THE LIVING ROOM.
-0.5643 THE MAIN DOOR
-0.6435 THE MAIN ENTRANCE
-0.3010 THE MEN IN
-0.5229 THE MONTH </s>
-0.6990 THE MONTH TO
-0.3010 THE NAME OF
-0.6990 THE NOODLES FROM
-0.5229 THE NOODLES TO
-1.1206 THE OBJECT ABOVE
-0.9165 THE OBJECT AT
-0.9744 THE OBJECT BEHIND
-0.9744 THE OBJECT ON
-1.0414 THE OBJECT UNDER
-1.6812 THE ORANGE AND
-0.4025 THE ORANGE FROM
-1.6812 THE ORANGE IN
-1.3802 THE ORANGE ON
-1.6812 THE ORANGE TO
-0.3010 THE ORANGE, AND
-1.2788 THE PAPRIKA AND
-0.4337 THE PAPRIKA FROM
-1.5798 THE PAPRIKA IN
-1.2788 THE PAPRIKA TO
-0.3010 THE PAPRIKA, AND
-0.3010 THE PEOPLE IN
-0.8556 THE PERSON AT
-0.9770 THE PERSON IN
-0.9369 THE PERSON POINTING
-1.0212 THE PERSON RAISING
-1.3544 THE PERSON WAVING
-0.3010 THE POSE OF
-0.3010 THE POTATO CHIPS
-0.3010 THE PRINGLES TO
-0.5643 THE REAR DOOR
-0.6435 THE REAR ENTRANCE
-0.6504 THE RIGHT IN
-0.6504 THE RIGHT MOST
-1.2788 THE RIGHT OF
-0.7782 THE SAUSAGES FROM
-0.7782 THE SAUSAGES IN
-0.7782 THE SAUSAGES TO
-0.3010 THE SAUSAGES, AND
-0.6990 THE SCRUBBY FROM
-0.5229 THE SCRUBBY TO
-0.3233 THE SIDE TABLE
-1.6021 THE SIDE TABLE,
-0.5256 THE SINK </s>
-1.0929 THE SINK AND
-1.4665 THE SINK FOLLOW
-2.5079 THE SINK LOOK
-1.3939 THE SINK MEET
-1.4287 THE SINK TO
-2.2068 THE SINK YOU
-1.3979 THE SINK, FIND
-0.5850 THE SINK, FOLLOW
-1.6990 THE SINK, LOCATE
-0.7959 THE SINK, MEET
-1.6990 THE SINK, YOU
-1.5051 THE SMALLEST CLEANING
-1.2041 THE SMALLEST CONTAINERS
-0.9031 THE SMALLEST CUTLERY
-1.5051 THE SMALLEST DRINKS
-1.5051 THE SMALLEST FOOD
-1.5051 THE SMALLEST FRUITS
-0.8062 THE SMALLEST OBJECT
-1.5051 THE SMALLEST SNACKS
-1.0000 THE SNACKS </s>
-0.3979 THE SNACKS IN
-0.3010 THE SPONGE FROM
-0.7782 THE SPOON AND
-0.7782 THE SPOON FROM
-0.7782 THE SPOON TO
-0.3010 THE STORAGE TABLE
-0.7782 THE TABLEWARE </s>
-0.4771 THE TABLEWARE IN
-0.3010 THE TAXI </s>
-1.5563 THE THINNEST CLEANING
-1.0792 THE THINNEST CONTAINERS
-1.2553 THE THINNEST DRINKS
-1.5563 THE THINNEST FOOD
-0.6532 THE THINNEST OBJECT
-1.2553 THE THINNEST SNACKS
-1.5563 THE THINNEST TABLEWARE
-1.5563 THE THREE BIGGEST
-0.9542 THE THREE HEAVIEST
-1.0792 THE THREE LARGEST
-0.7112 THE THREE LIGHTEST
-1.2553 THE THREE SMALLEST
-1.5563 THE THREE THINNEST
-0.6021 THE TIME </s>
-0.6021 THE TIME TO
-0.3010 THE TRASH </s>
-1.2455 THE TRAY </s>
-0.9902 THE TRAY AND
-0.9031 THE TRAY FROM
-1.0994 THE TRAY IN
-1.2455 THE TRAY ON
-1.0994 THE TRAY TO
-0.3010 THE TRAY, AND
-0.3010 THE UBER </s>
-0.3010 THE WASTE </s>
-0.3010 THE WEEK </s>
-0.3010 THE WOMEN IN
-0.3372 THEIR LEFT ARM
-1.3979 THEIR LEFT ARM,
-0.3010 THEIR RIGHT ARM
-0.3010 THERE ARE ON
-0.3010 THINNEST CLEANING STUFF
-0.4771 THINNEST CONTAINERS FROM
-0.7782 THINNEST CONTAINERS ON
-0.6021 THINNEST DRINKS FROM
-0.6021 THINNEST DRINKS ON
-0.3010 THINNEST FOOD ON
-0.6021 THINNEST OBJECT FROM
-0.6021 THINNEST OBJECT ON
-0.6021 THINNEST SNACKS FROM
-0.6021 THINNEST SNACKS ON
-0.6021 THINNEST TABLEWARE FROM
-0.6021 THINNEST TABLEWARE ON
-0.3010 THREE BIGGEST TABLEWARE
-0.3010 THREE CLEANING STUFF
-0.3010 THREE CONTAINERS IN
-0.3010 THREE CUTLERY IN
-0.3010 THREE DRINKS IN
-0.3010 THREE FOOD IN
-0.3010 THREE FRUITS IN
-0.9031 THREE HEAVIEST FOOD
-0.6021 THREE HEAVIEST FRUITS
-0.9031 THREE HEAVIEST OBJECTS
-0.4771 THREE LARGEST OBJECTS
-0.7782 THREE LARGEST TABLEWARE
-0.3680 THREE LIGHTEST OBJECTS
-1.1461 THREE LIGHTEST TABLEWARE
-0.6021 THREE SMALLEST DRINKS
-0.6021 THREE SMALLEST TABLEWARE
-0.3010 THREE SNACKS IN
-0.3010 THREE TABLEWARE IN
-0.3010 THREE THINNEST TABLEWARE
-0.3010 TIDY OP THE
-0.3010 TIME TO THE
-0.3010 TO ALEX AT
-0.3010 TO ALL THE
-0.3010 TO CHARLIE AT
-0.3010 TO ELIZABETH AT
-0.3010 TO EVERYONE IN
-0.3010 TO FRANCIS AT
-0.8325 TO HER CAB
-1.0544 TO HER TAXI
-0.5772 TO HER UBER
-0.8293 TO HIS CAB
-0.6185 TO HIS TAXI
-0.9542 TO HIS UBER
-0.3010 TO JAMES AT
-0.3010 TO JENNIFER AT
-0.3010 TO JOHN AT
-0.3010 TO LEAVE </s>
-0.3010 TO LINDA AT
-0.3010 TO MARY AT
-0.3010 TO ME </s>
-0.3010 TO MICHAEL AT
-0.3010 TO PATRICIA AT
-0.3010 TO ROBERT AT
-0.3010 TO ROBIN AT
-0.3010 TO SKYLER AT
-1.7431 TO THE BED
-1.9959 TO THE BED,
-1.5586 TO THE BEDROOM
-3.2746 TO THE BEDROOM,
-1.6726 TO THE BOOKCASE
-2.2332 TO THE BOOKCASE,
-2.5756 TO THE CAB
-1.6412 TO THE CORRIDOR
-2.9736 TO THE CORRIDOR,
-1.8944 TO THE COUCH
-2.0985 TO THE COUCH,
-2.1607 TO THE COUNTER
-3.2746 TO THE COUNTER,
-2.3715 TO THE CUPBOARD
-2.9736 TO THE CUPBOARD,
-1.6025 TO THE DESK
-2.1954 TO THE DESK,
-1.2412 TO THE DINING
