Language model created by QuickLM on Sat Apr  6 13:39:46 EDT 2019
Copyright (c) 1996-2010 Carnegie Mellon University and Alexander I. Rudnicky

The model is in standard ARPA format, designed by Doug Paul while he was at MITRE.

The code that was used to produce this language model is available in Open Source.
Please visit http://www.speech.cs.cmu.edu/tools/ for more information

The (fixed) discount mass is 0.5. The backoffs are computed using the ratio method.
This model based on a corpus of 34 sentences and 39 words

\data\
ngram 1=39
ngram 2=71
ngram 3=47

\1-grams:
-0.8414 </s> -0.3010
-0.8414 <s> -0.2291
-2.0719 A -0.2335
-2.3729 ALEX -0.2335
-2.3729 AM -0.2335
-2.3729 CHARLIE -0.2335
-2.3729 CHOCOLATE -0.2973
-2.3729 DAVID -0.2335
-2.0719 DRINK -0.2270
-2.3729 ELIZABETH -0.2335
-2.3729 FAVORITE -0.2973
-2.3729 FRANCIS -0.2335
-2.3729 GRAPE -0.2973
-2.0719 I -0.2973
-2.3729 I'M -0.2335
-1.8958 IS -0.2291
-2.0719 JAMES -0.2335
-2.3729 JENNIFER -0.2335
-2.3729 JOHN -0.2335
-2.0719 JUICE -0.2335
-2.0719 JUSTINA -0.2936
-2.3729 LINDA -0.2335
-2.3729 MARY -0.2335
-2.3729 MICHAEL -0.2335
-2.0719 MY -0.2973
-2.3729 NAME -0.2955
-2.0719 NO -0.2335
-2.3729 ORANGE -0.2973
-2.3729 PATRICIA -0.2335
-2.3729 RICHARD -0.2335
-2.0719 ROBERT -0.2335
-2.3729 ROBIN -0.2335
-2.0719 ROBOT -0.2936
-2.3729 SCOTT -0.2335
-2.3729 SKYLER -0.2335
-2.3729 SPRITE -0.2335
-2.3729 WANT -0.2335
-2.3729 WILLIAM -0.2335
-2.0719 YES -0.2335

\2-grams:
-1.8325 <s> ALEX 0.0000
-1.8325 <s> CHARLIE 0.0000
-1.8325 <s> CHOCOLATE 0.0000
-1.8325 <s> DAVID 0.0000
-1.8325 <s> ELIZABETH 0.0000
-1.8325 <s> FRANCIS 0.0000
-1.8325 <s> GRAPE 0.0000
-1.5315 <s> I 0.0000
-1.8325 <s> I'M 0.0000
-1.8325 <s> IS -0.1249
-1.5315 <s> JAMES 0.0000
-1.8325 <s> JENNIFER 0.0000
-1.8325 <s> JOHN 0.0000
-1.5315 <s> JUSTINA 0.0000
-1.8325 <s> LINDA 0.0000
-1.8325 <s> MARY 0.0000
-1.8325 <s> MICHAEL 0.0000
-1.5315 <s> MY 0.0000
-1.8325 <s> ORANGE 0.0000
-1.8325 <s> PATRICIA 0.0000
-1.8325 <s> RICHARD 0.0000
-1.5315 <s> ROBERT 0.0000
-1.8325 <s> ROBIN 0.0000
-1.5315 <s> ROBOT 0.0000
-1.8325 <s> SCOTT 0.0000
-1.8325 <s> SKYLER 0.0000
-1.8325 <s> SPRITE 0.0000
-1.8325 <s> WILLIAM 0.0000
-0.3010 A </s> -0.3010
-0.3010 ALEX </s> -0.3010
-0.3010 AM </s> -0.3010
-0.3010 CHARLIE </s> -0.3010
-0.3010 CHOCOLATE DRINK -0.1761
-0.3010 DAVID </s> -0.3010
-0.6021 DRINK </s> -0.3010
-0.6021 DRINK IS -0.1249
-0.3010 ELIZABETH </s> -0.3010
-0.3010 FAVORITE DRINK -0.1761
-0.3010 FRANCIS </s> -0.3010
-0.3010 GRAPE JUICE 0.0000
-0.6021 I AM 0.0000
-0.6021 I WANT 0.0000
-0.3010 I'M </s> -0.3010
-0.7782 IS </s> -0.3010
-0.4771 IS A 0.0000
-0.3010 JAMES </s> -0.3010
-0.3010 JENNIFER </s> -0.3010
-0.3010 JOHN </s> -0.3010
-0.3010 JUICE </s> -0.3010
-0.6021 JUSTINA NO 0.0000
-0.6021 JUSTINA YES 0.0000
-0.3010 LINDA </s> -0.3010
-0.3010 MARY </s> -0.3010
-0.3010 MICHAEL </s> -0.3010
-0.6021 MY FAVORITE 0.0000
-0.6021 MY NAME 0.0000
-0.3010 NAME IS -0.2218
-0.3010 NO </s> -0.3010
-0.3010 ORANGE JUICE 0.0000
-0.3010 PATRICIA </s> -0.3010
-0.3010 RICHARD </s> -0.3010
-0.3010 ROBERT </s> -0.3010
-0.3010 ROBIN </s> -0.3010
-0.6021 ROBOT NO 0.0000
-0.6021 ROBOT YES 0.0000
-0.3010 SCOTT </s> -0.3010
-0.3010 SKYLER </s> -0.3010
-0.3010 SPRITE </s> -0.3010
-0.3010 WANT </s> -0.3010
-0.3010 WILLIAM </s> -0.3010
-0.3010 YES </s> -0.3010

\3-grams:
-0.3010 <s> ALEX </s>
-0.3010 <s> CHARLIE </s>
-0.3010 <s> CHOCOLATE DRINK
-0.3010 <s> DAVID </s>
-0.3010 <s> ELIZABETH </s>
-0.3010 <s> FRANCIS </s>
-0.3010 <s> GRAPE JUICE
-0.6021 <s> I AM
-0.6021 <s> I WANT
-0.3010 <s> I'M </s>
-0.3010 <s> IS A
-0.3010 <s> JAMES </s>
-0.3010 <s> JENNIFER </s>
-0.3010 <s> JOHN </s>
-0.6021 <s> JUSTINA NO
-0.6021 <s> JUSTINA YES
-0.3010 <s> LINDA </s>
-0.3010 <s> MARY </s>
-0.3010 <s> MICHAEL </s>
-0.6021 <s> MY FAVORITE
-0.6021 <s> MY NAME
-0.3010 <s> ORANGE JUICE
-0.3010 <s> PATRICIA </s>
-0.3010 <s> RICHARD </s>
-0.3010 <s> ROBERT </s>
-0.3010 <s> ROBIN </s>
-0.6021 <s> ROBOT NO
-0.6021 <s> ROBOT YES
-0.3010 <s> SCOTT </s>
-0.3010 <s> SKYLER </s>
-0.3010 <s> SPRITE </s>
-0.3010 <s> WILLIAM </s>
-0.3010 CHOCOLATE DRINK </s>
-0.3010 DRINK IS A
-0.3010 FAVORITE DRINK IS
-0.3010 GRAPE JUICE </s>
-0.3010 I AM </s>
-0.3010 I WANT </s>
-0.3010 IS A </s>
-0.3010 JUSTINA NO </s>
-0.3010 JUSTINA YES </s>
-0.3010 MY FAVORITE DRINK
-0.3010 MY NAME IS
-0.3010 NAME IS </s>
-0.3010 ORANGE JUICE </s>
-0.3010 ROBOT NO </s>
-0.3010 ROBOT YES </s>

\end\
