Language model created by QuickLM on Tue Mar 15 14:35:53 EDT 2016
Copyright (c) 1996-2010 Carnegie Mellon University and Alexander I. Rudnicky

The model is in standard ARPA format, designed by Doug Paul while he was at MITRE.

The code that was used to produce this language model is available in Open Source.
Please visit http://www.speech.cs.cmu.edu/tools/ for more information

The (fixed) discount mass is 0.5. The backoffs are computed using the ratio method.
This model based on a corpus of 17 sentences and 32 words

\data\
ngram 1=32
ngram 2=49
ngram 3=45

\1-grams:
-1.0483 </s> -0.3010
-1.0483 <s> -0.2603
-2.2788 A -0.2987
-1.9777 ARM -0.2603
-2.2788 ARMS -0.2603
-1.9777 BASE -0.2603
-1.6767 BRING -0.2894
-2.2788 CORRIDOR -0.2603
-2.2788 DRINK -0.2603
-2.2788 ENTRANCE -0.2603
-2.2788 FOLLOW -0.2894
-2.2788 FRONT -0.2987
-1.6767 GO -0.2918
-2.2788 HEAD -0.2603
-2.2788 HELLO -0.2603
-2.2788 INTRODUCE -0.2987
-2.2788 JUICE -0.2603
-2.2788 KITCHEN -0.2603
-2.2788 LEFT -0.2964
-2.2788 LIVINGROOM -0.2603
-1.5798 ME -0.2398
-2.2788 MILK -0.2603
-2.2788 MOBILE -0.2964
-1.5006 MOVE -0.2871
-2.2788 ORANGE -0.2987
-2.2788 RIGHT -0.2964
-2.2788 SAY -0.2987
-2.2788 SODA -0.2603
-1.4337 THE -0.2847
-1.6767 TO -0.2847
-1.5006 YOUR -0.2847
-2.2788 YOURSELF -0.2603

\2-grams:
-0.9294 <s> BRING 0.0000
-1.5315 <s> FOLLOW 0.0000
-0.9294 <s> GO 0.0000
-1.5315 <s> INTRODUCE 0.0000
-0.7533 <s> MOVE 0.0000
-1.5315 <s> SAY 0.0000
-0.3010 A DRINK 0.0000
-0.3010 ARM </s> -0.3010
-0.3010 ARMS </s> -0.3010
-0.3010 BASE </s> -0.3010
-0.3010 BRING ME -0.0792
-0.3010 CORRIDOR </s> -0.3010
-0.3010 DRINK </s> -0.3010
-0.3010 ENTRANCE </s> -0.3010
-0.3010 FOLLOW ME -0.2553
-0.3010 FRONT ENTRANCE 0.0000
-0.3010 GO TO 0.0000
-0.3010 HEAD </s> -0.3010
-0.3010 HELLO </s> -0.3010
-0.3010 INTRODUCE YOURSELF 0.0000
-0.3010 JUICE </s> -0.3010
-0.3010 KITCHEN </s> -0.3010
-0.3010 LEFT ARM 0.0000
-0.3010 LIVINGROOM </s> -0.3010
-1.0000 ME </s> -0.3010
-1.0000 ME A 0.0000
-0.5229 ME THE -0.1963
-0.3010 MILK </s> -0.3010
-0.3010 MOBILE BASE 0.0000
-0.3010 MOVE YOUR 0.0000
-0.3010 ORANGE JUICE 0.0000
-0.3010 RIGHT ARM 0.0000
-0.3010 SAY HELLO 0.0000
-0.3010 SODA </s> -0.3010
-1.1461 THE CORRIDOR 0.0000
-1.1461 THE FRONT 0.0000
-1.1461 THE KITCHEN 0.0000
-1.1461 THE LIVINGROOM 0.0000
-1.1461 THE MILK 0.0000
-1.1461 THE ORANGE 0.0000
-1.1461 THE SODA 0.0000
-0.3010 TO THE -0.1549
-1.0792 YOUR ARMS 0.0000
-1.0792 YOUR BASE 0.0000
-1.0792 YOUR HEAD 0.0000
-1.0792 YOUR LEFT 0.0000
-1.0792 YOUR MOBILE 0.0000
-1.0792 YOUR RIGHT 0.0000
-0.3010 YOURSELF </s> -0.3010

\3-grams:
-0.3010 <s> BRING ME
-0.3010 <s> FOLLOW ME
-0.3010 <s> GO TO
-0.3010 <s> INTRODUCE YOURSELF
-0.3010 <s> MOVE YOUR
-0.3010 <s> SAY HELLO
-0.3010 A DRINK </s>
-0.9031 BRING ME A
-0.4260 BRING ME THE
-0.3010 FOLLOW ME </s>
-0.3010 FRONT ENTRANCE </s>
-0.3010 GO TO THE
-0.3010 INTRODUCE YOURSELF </s>
-0.3010 LEFT ARM </s>
-0.3010 ME A DRINK
-0.7782 ME THE MILK
-0.7782 ME THE ORANGE
-0.7782 ME THE SODA
-0.3010 MOBILE BASE </s>
-1.0792 MOVE YOUR ARMS
-1.0792 MOVE YOUR BASE
-1.0792 MOVE YOUR HEAD
-1.0792 MOVE YOUR LEFT
-1.0792 MOVE YOUR MOBILE
-1.0792 MOVE YOUR RIGHT
-0.3010 ORANGE JUICE </s>
-0.3010 RIGHT ARM </s>
-0.3010 SAY HELLO </s>
-0.3010 THE CORRIDOR </s>
-0.3010 THE FRONT ENTRANCE
-0.3010 THE KITCHEN </s>
-0.3010 THE LIVINGROOM </s>
-0.3010 THE MILK </s>
-0.3010 THE ORANGE JUICE
-0.3010 THE SODA </s>
-0.9031 TO THE CORRIDOR
-0.9031 TO THE FRONT
-0.9031 TO THE KITCHEN
-0.9031 TO THE LIVINGROOM
-0.3010 YOUR ARMS </s>
-0.3010 YOUR BASE </s>
-0.3010 YOUR HEAD </s>
-0.3010 YOUR LEFT ARM
-0.3010 YOUR MOBILE BASE
-0.3010 YOUR RIGHT ARM

\end\
